-1.1632810740,-0.0034906277,-0.0044823512,-0.0053357441,-0.0013569481,-0.0027332978,-0.0027304030,-0.0003222087,-0.0160209677,-0.0160200606,-0.0095479136,-0.0092255411,0.0000000000,-0.0009127711,-0.0010221845,-0.0135485056,-0.0042095338,0.0029171205,-0.0077291784,-0.0117199483,-0.0056557716,-0.0120912290,-0.0079097420,-0.0415342430,-0.0322033250,-0.0067592503,-0.0030535202,-0.0048196349,-0.0164492058,-0.0422294041,-0.0518547394,-0.0286863489,-0.0156614771,0.0017792358,0.0139496114,0.0045566919,0.0589346442,0.0509090459,0.0343526360,0.0149573821,-0.0029407614,-0.0108105445,-0.0262474346,-0.0452146657,-0.0691136804,-0.0297081556,-0.0170803776,-0.0412172267,-0.0431794793,-0.0615249806,-0.0793769250,-0.0728750600,-0.0431722464,0.0099236814,0.0518422452,0.0451806182,0.1080151151,0.0861830147,0.0171970708,0.0017404592,-0.0400284592,-0.0108100685,-0.0150448735,-0.0333303499,-0.0868027188,-0.0862014772,-0.0712760895,-0.0705081715,-0.0696679957,-0.1331801297,-0.0790558248,-0.0429524848,-0.0032339531,0.0438786189,0.1064118308,0.0870222764,0.1160507201,0.1144772640,0.0431746349,0.0089060733,-0.0189048057,-0.0141678872,-0.0284113106,-0.0439181892,-0.0783434295,-0.0704666839,-0.0860067157,-0.0648534710,-0.1014134993,-0.0785190344,0.0181275968,0.0252165659,0.0129858104,0.0680572015,0.0650014524,-0.0524298595,0.0590174750,0.0970917571,0.1062542187,0.0100467333,-0.0213243402,-0.0355138628,-0.0265928255,0.0134572712,-0.0332083489,-0.0810816443,-0.1113539709,-0.0966001501,-0.0703429602,-0.0232639085,0.0268467470,0.0636171903,0.0035867915,0.0128124344,0.0977123286,0.0080589722,0.0370363318,0.0388125634,0.0639800877,0.0177044735,-0.0312589178,-0.0355124214,-0.0355148603,-0.0431757170,-0.0048073383,-0.0786321382,-0.0847364604,-0.1304387523,-0.0539357308,0.0260952894,0.0143757233,0.0660139657,0.0545869045,0.0569635729,0.0684074288,0.0572234679,0.0463004723,0.0162153138,0.0883346793,0.0101023837,-0.0067777853,-0.0223689344,-0.0372766061,-0.0362160576,-0.0625180061,-0.0551121277,0.0014788266,-0.0604223856,0.0287308335,-0.0403266815,0.0340764652,0.0904758743,0.0452075116,0.0115540640,0.0263834453,-0.0226975559,0.1078341911,0.0272926305,0.0663311642,0.0667740879,0.0031891041,0.0000000004,-0.0208461170,0.0157198986,-0.0448775972,0.0008158345,-0.0687315738,0.0014848401,0.0077958859,0.0180298508,0.0478085326,0.0096052690,0.0351560856,0.0511609458,0.0340111192,0.0055505369,-0.0006274308,0.0500656163,0.0400299958,0.0282897979,0.0311573557,0.0000000497,0.0021974235,0.1053640441,0.1045076324,0.0668381419,-0.0313103529,-0.0310857993,-0.0316088117,0.0220867160,0.0359116079,-0.0342037978,-0.0109906195,0.0458742174,0.0218374901,0.0368898130,0.0269568649,0.0408035012,0.0210115555,0.0298490399,0.0216888846,0.0003177829,0.0318572957,0.0908998829,0.1268646232,0.0106369875,0.0404609687,0.0154926151,-0.0005200375,0.0307776577,0.0450452144,0.0323897090,-0.0311549763,-0.0680578544,0.0340020304,-0.0030023177,0.0464853174,0.0430361973,0.0234845399,0.0226148698,0.0201413409,0.0003178798,0.0239756846,0.0877563149,0.0693248826,0.0343872269,0.0851705074,0.0704816315,0.0796952946,0.1036196070,0.0193123234,0.0121116507,-0.0524776759,-0.0456881947,0.0045818973,0.0215974183,0.0655107592,0.0255032962,0.0756431615,0.0269618501,0.0232373286,0.0000000000,0.0028232423,0.0297385582,0.0118026780,0.0419443557,0.0396136047,-0.0034509644,-0.0192507049,0.0898580762,0.0151431658,-0.0444397673,-0.0300810391,-0.0142800005,-0.0030875755,0.0500892253,0.0891328215,0.0308765908,0.0748701363,0.0356975985,0.0240716650,0.0000000000,0.0046078844,0.0022374808,-0.0035980537,0.0324641656,0.0383519552,0.0172874247,-0.0181749315,-0.0312437575,-0.0040386876,0.0014631146,-0.0366976492,-0.0258461750,0.0405465633,0.1042545897,0.0720670020,0.0158755652,0.0376440081,0.0490109533,0.0260434017,0.0000000000,0.0000000003,-0.0113641084,0.0165470185,-0.0245608193,-0.0237193459,-0.0687001393,-0.0176151497,-0.0099704321,-0.0010804465,-0.0325522247,0.0115159896,-0.0205554575,0.0539630402,0.0080944121,0.0347277861,0.0102787904,0.0703686641,0.0530395101,0.0309651450,-0.0108095700,-0.0108093822,-0.0176164116,-0.0429481270,-0.0983842412,-0.0969795109,-0.0650515717,-0.0091370774,0.0197164840,0.0042123082,0.0016080371,0.0171810186,0.0430552700,0.0526203360,0.0145010156,0.0188261899,-0.0078467804,0.0433367949,0.0473123141,0.0372275764,-0.0108099869,0.0000000004,-0.0394663723,-0.0722121817,-0.1072980583,-0.1422721322,-0.1079491516,-0.1844756133,-0.0442647808,-0.0069059219,0.0599673604,0.0373483986,0.0995872525,0.0725477699,0.0613863342,0.0845631487,0.0532129784,0.0252753715,0.0724340022,0.0198726108,0.0000000000,-0.0223684801,-0.0507760572,-0.0443535237,-0.0760461388,-0.0833186040,-0.0976121079,-0.1090859495,-0.0837875033,0.0026822450,0.0043745315,0.0259891368,0.0034790940,0.0500988485,0.0540380910,0.0950767124,0.0281659969,0.0133154417,0.0611473776,0.0200951262,0.0000000000,-0.0232817941,-0.0437891859,-0.0416382832,-0.0391521697,-0.0455804023,-0.0588262575,-0.0940699303,-0.0753983349,-0.0775931597,-0.0820595930,0.0140649925,0.0132347996,0.0801124434,0.1076252321,0.0535374641,-0.0043135125,0.0356350489,0.0339916732,0.0350180253,-0.0000000042,-0.0032848203,-0.0280988865,-0.0469782481,-0.0442360263,-0.0446218058,-0.0265885435,-0.0616740730,-0.0698242004,-0.0625316865,-0.0557045533,-0.0251436902,0.0166538011,0.0383106940,0.1048371074,0.1033210933,0.0453796759,0.0215328806,0.0636934858,-0.0667295746,0.2300038068,-0.0002059744,-0.0067897959,-0.0067859583,-0.0001342712,-0.0094860320,-0.0094891577,0.0003677986,-0.0054045093,-0.0054045681,0.0078363615,0.0074655409,-0.0000000381,-0.0377509757,-0.0390159653,-0.0001066408,-0.0063081420,-0.0057702183,-0.0033344748,-0.0008317231,-0.0001401209,-0.0017462678,-0.0029696825,-0.0129543270,-0.0151762516,-0.0036385581,-0.0091205177,0.0053817152,0.0354695671,0.0377421091,0.0485424237,0.0501162191,0.0308812429,-0.0611021972,-0.0633217360,-0.0107196055,-0.0422189992,-0.0361566761,-0.0233645528,-0.0145769464,-0.0019915417,-0.0015200227,-0.0056359719,-0.0327812993,-0.0487609344,-0.0044981036,0.0112833070,0.0448675149,0.0694425636,0.0886029209,0.0842773764,0.0786630531,0.0089122313,-0.0406591374,-0.0321824555,-0.0241063345,-0.0660074065,-0.0761973484,-0.0366308605,-0.0222477379,-0.0118529859,-0.0015199601,-0.0044007615,-0.0108429840,-0.0291790567,-0.0226355641,0.0379775883,0.0481118983,0.0724737606,0.1441945903,0.0944045934,0.0560716193,0.0191446766,-0.0181049198,-0.0415307218,-0.0432210231,-0.0881043913,-0.1059148565,-0.0688223586,-0.0435036093,-0.0102206222,-0.0081302381,-0.0181096766,-0.0144343086,-0.0108409440,0.0164241720,0.0428821747,0.0636243620,0.1236601693,0.1401391936,0.0333255517,-0.0026427448,-0.0069257777,-0.0221034912,-0.0408540350,0.0161980627,-0.0711445881,-0.0923856524,-0.0949176990,-0.0479560920,-0.0056885656,0.0011921331,-0.0481695950,-0.0474315515,-0.0040547243,0.0505565564,0.0507526692,0.0691465025,0.0870002446,0.0551058342,-0.0013003561,-0.0692970425,0.0045501372,0.0299540956,-0.0484538691,-0.0177283893,-0.0293216029,-0.0342441198,-0.0831731030,-0.0485073092,-0.0040826689,0.0011930635,0.0011930384,-0.0087300851,0.0236121538,0.0579742255,0.0321473969,0.0515349784,0.0673203220,0.0090578493,0.0412755529,0.0373391764,0.0234243357,-0.0338863757,0.0216590321,0.0245502998,-0.0506904300,-0.0065486652,-0.0122429230,-0.0213310114,-0.0022381129,0.0020808074,0.0156952962,0.0507764276,0.0383591782,0.0240801638,-0.0261502283,0.0603317180,0.0285161810,-0.0263028824,-0.0629506825,-0.0461373070,0.0441539900,-0.0065223600,0.0268776833,0.0721489795,-0.0738891279,0.0023565240,0.0233824937,-0.0194751981,-0.0007522727,0.0000002578,0.0148504001,0.0375574706,0.0354274951,-0.0400121150,0.0243819025,0.0105664217,0.0398230053,-0.0907019134,-0.1909830356,-0.0822821476,-0.0094583973,0.0243506263,0.0157575008,0.0436398315,0.0035584277,-0.0048649193,0.0374546583,0.0296842357,-0.0115625756,0.0000000249,0.0129396385,-0.0070557418,-0.0312244991,-0.0498666588,0.0117630533,0.0252286572,-0.0003716032,-0.1138828867,-0.1520209714,-0.1016433691,-0.0322171775,-0.0687377931,-0.0359123364,0.0656339717,0.0130346456,0.0277691042,0.0400769229,0.0369319613,-0.0024570816,-0.0005672035,-0.0132682172,-0.0026773587,-0.0059020143,0.0070627829,0.0177356035,0.0505695655,0.0035905790,-0.1322789955,-0.0874592159,-0.1144283340,-0.0694972839,-0.0597460317,-0.0564164144,0.0344249640,-0.0295185652,0.0382592941,0.0501254198,0.0451436031,0.0115797981,-0.0005671874,-0.0089659830,-0.0104969301,0.0139117284,-0.0062215875,-0.0647970900,-0.0013594205,-0.0135440288,-0.1326642564,-0.1058687066,-0.1265398931,-0.0604163880,-0.0447358048,-0.0004674493,0.0215942075,-0.0756070911,0.0347184920,0.0219826251,0.0449798029,0.0092395385,-0.0000000037,0.0089690162,0.0190204514,0.0747664594,-0.0157978856,-0.0113932591,0.0501686664,-0.0531990164,-0.1179403529,-0.1000331628,-0.1130968386,-0.0700897165,-0.0145571786,-0.0209817352,-0.0037148292,-0.0376204184,0.0105182043,0.0172904309,0.0408394707,0.0091861701,-0.0000001101,0.0096125670,0.0436346183,0.0725805165,0.0369866928,-0.0733115368,0.0434466660,-0.0030182999,-0.0392217253,-0.0754765792,-0.1164526209,-0.0513601331,0.0316446664,-0.0468501359,-0.0514006268,-0.0128622926,0.0079306631,0.0035205593,0.0154260076,0.0078999084,-0.0000000003,-0.0000001339,0.0462556572,0.0551427453,0.0290765323,0.0325760378,0.0699570201,-0.0413746662,0.0115330879,-0.0413399960,-0.0643880037,-0.0109523417,0.0005371280,-0.0710953371,-0.0162546201,-0.0060345448,0.0332127586,-0.0298513338,-0.0090311936,-0.0011529000,-0.0015199086,-0.0015198270,0.0046884659,0.0604186601,0.0409961112,0.0202344265,0.0229366607,0.0478681717,-0.0541104950,-0.0682746658,0.0019875681,0.0725668528,-0.0379633224,-0.0536711360,-0.0437663233,-0.0162080443,0.0053105593,-0.0140784594,-0.0119430634,-0.0212041865,-0.0015196395,-0.0000000001,0.0030002787,-0.0452639853,0.0205117689,0.0766045296,0.0474184608,0.1305411487,0.0392067242,0.0212608191,0.0005640210,-0.0351124619,-0.0145932758,-0.0460674707,-0.0469453904,-0.0344174850,-0.0719441808,-0.0327587094,-0.0268748273,-0.0327711793,-0.0000000004,0.0020800161,-0.0513253884,-0.0507751685,-0.0007084054,0.0520235114,0.0588335930,0.0532865943,0.1021688881,0.0143752036,0.0089295021,-0.0322871102,-0.0331226399,-0.0322739180,-0.0496175340,-0.0687405062,-0.0413459971,-0.0481954601,-0.0862255927,-0.0337872757,-0.0000000000,-0.0356701227,-0.0400394900,-0.0348972288,-0.0327258653,-0.0266185065,0.0406604996,0.0739536219,0.0698121318,0.0378735004,0.0555959724,0.0416063262,-0.0196823033,-0.0884872370,-0.0802333046,-0.0158173066,-0.0274972254,-0.0780021537,-0.0814499490,-0.0520535310,-0.0000002268,-0.0015840037,-0.0118485267,-0.0269854478,-0.0229718326,-0.0427230029,0.0098528607,0.0535357357,0.0669584171,0.0611807685,0.0454856034,0.0162836493,0.0182508748,-0.0655050963,-0.1042495057,-0.0956252827,-0.0529376440,-0.0622104975,-0.0698222312,-0.0220824579,0.1861468929,-0.0027033908,-0.0083662402,-0.0089579276,-0.0010691832,-0.0124239978,-0.0124228649,0.0001079126,-0.0244208331,-0.0244206731,-0.0003928079,-0.0005006560,-0.0000001440,-0.0372883475,-0.0382979461,-0.0118606143,-0.0103508058,-0.0012122795,-0.0095088940,-0.0098490102,-0.0044604112,-0.0148519117,-0.0084216979,-0.0510041942,-0.0453715827,-0.0093248006,-0.0123153061,-0.0009602436,0.0163873685,-0.0089520996,-0.0075279723,0.0187779647,0.0134047377,-0.0601802055,-0.0463923205,-0.0036100932,0.0236029018,0.0198143081,0.0166964691,0.0004903675,-0.0028101980,-0.0134256309,-0.0295844281,-0.0694670213,-0.1100508947,-0.0290914233,-0.0062311542,-0.0008784297,0.0241518736,0.0262260485,0.0017334475,0.0005034634,-0.0353574715,-0.0340771380,0.0236062694,0.0305970710,0.0542898671,0.0263727448,-0.0078116536,-0.0199925562,-0.0536267898,-0.0134259516,-0.0188763729,-0.0388433573,-0.1053503079,-0.1025481337,-0.0322385793,-0.0269065481,0.0026952177,0.0221719071,0.0203193879,0.0150626596,0.0184573540,0.0366297417,0.0748629708,0.0564440142,0.0412359359,0.0200660213,-0.0167538005,-0.0340102856,-0.0285325453,-0.0232826821,-0.0497397689,-0.0605101248,-0.0805754912,-0.0427688665,-0.0382114409,-0.0039301014,0.0249468509,0.0621035781,0.0495028942,0.0142365748,0.0019256497,0.0549555700,0.0477161115,-0.0117709100,0.0080032897,0.0169391517,0.0104468637,-0.0271698087,-0.0176743453,-0.0283134421,-0.0774735378,-0.0441371495,-0.0368071485,-0.0189172919,-0.0509222021,-0.0209654438,0.0172488683,0.0321423980,0.0268132233,0.0006917752,0.0102882485,0.0422328979,0.0546383637,0.0110318214,0.0380583961,0.0155599924,-0.0138118321,-0.0219016366,-0.0282222218,-0.0283148209,-0.0283138858,-0.0559930069,0.0181591769,-0.0147635871,-0.0512834472,-0.0635576382,0.0299796965,0.0330953602,0.0537524125,0.1049131537,0.0674056710,0.0194186499,0.0924323125,0.0862864787,0.0107539351,0.0207288805,0.0879019092,0.0021158765,-0.0091372968,-0.0131126479,-0.0169558426,0.0259134626,-0.0200106296,-0.0344342763,-0.0256583325,0.0238116911,0.0689785363,-0.0608707649,-0.0303489202,0.0471560954,0.0830417856,0.0003472899,0.0400562887,0.0433664461,0.0412050070,0.0442706161,0.0959400846,0.0502283919,0.0029865062,-0.0000000007,0.0003739284,0.0632786166,0.0048175447,-0.0273435403,-0.0340005878,0.0292158863,0.0504966052,-0.0646813366,-0.1352214375,-0.0728385149,0.0191184488,0.0769973952,0.0376050819,0.0410693883,0.0087673232,0.0502467059,0.0833711561,0.0612239506,0.0196764463,-0.0000000378,0.0153021313,0.1057527561,0.0958218248,0.0370754049,-0.0005616139,-0.0019408392,-0.0447377612,-0.0792060084,-0.1157639487,-0.1347607327,-0.0449931524,-0.0281965509,-0.0153074300,0.0834631567,0.0373106613,0.0685479215,0.0714377604,0.0698124927,0.0200348425,0.0000584889,0.0214344007,0.1048564683,0.1491584953,0.0310809001,0.0652628993,0.0555932883,-0.0085916144,-0.0932003942,-0.0431073256,-0.0802483508,-0.0981422632,-0.1318018732,-0.0316971282,0.0073395990,-0.0007452053,0.0830114514,0.0858123963,0.0739975874,0.0314343663,0.0000583317,0.0160592824,0.0995036942,0.1012704297,0.0327434959,0.0191883809,0.0670204218,0.0504032356,-0.0256501967,-0.0825776366,-0.1141536905,-0.1081223369,-0.0900698419,-0.0143169344,0.0210655460,-0.0271333263,0.0602626215,0.1108149472,0.0778658509,0.0315539932,0.0000000026,0.0120850117,0.0669174820,0.1133760922,0.0304539390,0.0235509896,0.0472239866,-0.0823869119,-0.0190172950,-0.0736236341,-0.1521610517,-0.0994173934,-0.0406968228,-0.0455641188,0.0269538407,0.0425811284,0.0426057502,0.1081116330,0.0788841847,0.0326157814,0.0000000001,0.0133287493,0.0565170961,0.0839792387,0.0727629058,-0.0288954946,0.0656459484,-0.0139674356,-0.0640513438,-0.0671820806,-0.1101842473,-0.0950088318,-0.0095978488,-0.0259752419,0.0447721204,0.0599501139,0.0280966653,0.0498620899,0.0667134455,0.0337128155,-0.0000000202,0.0000002399,0.0417756692,0.0786339275,0.0107810572,0.0227598170,0.0156496246,-0.0547761057,0.0152193977,-0.0500702530,-0.1101912628,-0.0072215057,-0.0353974737,-0.0130973873,-0.0062852266,0.0372274457,0.0522015504,0.0413438030,0.0380508044,0.0303297845,-0.0134243500,-0.0134250993,-0.0184637868,0.0309253081,-0.0439333712,-0.0642485610,-0.0378118234,0.0523617656,-0.0197986483,-0.0585131940,-0.0023151003,0.0841983559,0.0092223628,0.0055580918,-0.0122772824,0.0160927612,0.0079390495,0.0358230271,0.0295572018,0.0181360111,-0.0134264374,0.0000000169,-0.0343029696,-0.1134857910,-0.0698150683,-0.0473772672,-0.0592659049,-0.0556091668,0.0033315867,0.0222332376,0.0557430166,-0.0027386145,0.0902421840,0.0434012902,0.0348661333,0.0662935017,-0.0064099397,-0.0015209863,0.0435892956,-0.0144475066,-0.0000000457,-0.0131109121,-0.0927178633,-0.0871255738,-0.0693564953,-0.0238901998,-0.0378322268,-0.0557665671,0.0251009063,0.0250994342,0.0239229618,-0.0051510241,-0.0303957866,0.0376061805,0.0222710650,0.0397775976,0.0081554647,-0.0192440930,-0.0193087850,-0.0143248022,0.0000000002,-0.0504004530,-0.0701171602,-0.0675328955,-0.0687080196,-0.0797800652,-0.0194289105,-0.0149291303,-0.0029782682,-0.0349244207,-0.0176126458,0.0669906860,-0.0097385491,-0.0126737547,0.0356809659,0.0470235778,-0.0171159711,-0.0179222660,-0.0363764323,-0.0141587546,0.0000000068,-0.0041218420,-0.0376315368,-0.0637162695,-0.0647258323,-0.0904323948,-0.0163341017,-0.0109871447,-0.0065883337,-0.0029243270,-0.0109631734,-0.0068073757,0.0404527809,-0.0320905003,-0.0052386352,-0.0014259720,-0.0007592064,-0.0277802482,0.0051244130,-0.0761337604,0.2301397328,-0.0002065285,-0.0067883221,-0.0067875800,-0.0001345187,-0.0094897610,-0.0094896718,0.0003677622,-0.0054101803,-0.0054106204,0.0078312600,0.0074638430,-0.0000000079,-0.0377515092,-0.0390176216,-0.0001087839,-0.0063103618,-0.0057711349,-0.0033365306,-0.0008322604,-0.0001405987,-0.0017491173,-0.0029713492,-0.0129626936,-0.0151838618,-0.0036401663,-0.0091196529,0.0053804382,0.0354680937,0.0377347479,0.0485334535,0.0501099484,0.0308791137,-0.0611046502,-0.0633237122,-0.0107193897,-0.0422078948,-0.0361471994,-0.0233573399,-0.0145761322,-0.0019930965,-0.0015223279,-0.0056436273,-0.0327910869,-0.0487731006,-0.0045046990,0.0112792702,0.0448538002,0.0694306193,0.0885896590,0.0842625811,0.0786492242,0.0089085615,-0.0406579440,-0.0321766701,-0.0241026359,-0.0659934535,-0.0761902493,-0.0366278789,-0.0222469333,-0.0118649454,-0.0015223184,-0.0044039746,-0.0108474389,-0.0291953731,-0.0226506878,0.0379576533,0.0480971657,0.0724613770,0.1441749846,0.0943795503,0.0560651738,0.0191399840,-0.0181005473,-0.0415088847,-0.0432047241,-0.0880837712,-0.1058912390,-0.0688108981,-0.0435050628,-0.0102248614,-0.0081338369,-0.0181176061,-0.0144463361,-0.0108551237,0.0164091855,0.0428699644,0.0636088694,0.1236493805,0.1401173842,0.0333303516,-0.0026389358,-0.0069275117,-0.0221051418,-0.0408403015,0.0161902542,-0.0711379464,-0.0923663055,-0.0948973856,-0.0479543520,-0.0056890954,0.0011885191,-0.0481754662,-0.0474302101,-0.0040569442,0.0505330493,0.0507429482,0.0691245622,0.0869850119,0.0551013040,-0.0012951352,-0.0692847760,0.0045485579,0.0299469897,-0.0484350612,-0.0177296911,-0.0293181201,-0.0342426380,-0.0831689490,-0.0484999317,-0.0040864460,0.0011884884,0.0011890273,-0.0087379878,0.0236066971,0.0579619697,0.0321346717,0.0514960069,0.0673056721,0.0090598854,0.0412537995,0.0373659177,0.0234131790,-0.0338820479,0.0216694873,0.0245597889,-0.0506819825,-0.0065524260,-0.0122254197,-0.0213300325,-0.0022402191,0.0020787678,0.0156903694,0.0507745766,0.0383411568,0.0240696033,-0.0261523175,0.0603144805,0.0285029644,-0.0263160150,-0.0629532410,-0.0461227039,0.0441507782,-0.0065223529,0.0268770626,0.0721304104,-0.0738720067,0.0023581296,0.0233855140,-0.0194688420,-0.0007517715,-0.0000000302,0.0148485673,0.0375639465,0.0354211895,-0.0399997640,0.0243706089,0.0105589526,0.0398185016,-0.0906977901,-0.1909786980,-0.0822824587,-0.0094423687,0.0243617603,0.0157553981,0.0436344474,0.0035545557,-0.0048598007,0.0374512578,0.0296851306,-0.0115574329,0.0000000002,0.0129401555,-0.0070413412,-0.0312115652,-0.0498601004,0.0117551496,0.0252162249,-0.0003807609,-0.1138733931,-0.1520105475,-0.1016520833,-0.0322259073,-0.0687233112,-0.0359085037,0.0656475754,0.0130371604,0.0277731503,0.0400756371,0.0369330537,-0.0024544726,-0.0005671868,-0.0132624088,-0.0026577289,-0.0058837393,0.0070509011,0.0177518809,0.0505574348,0.0035773002,-0.1322722231,-0.0874551667,-0.1144189031,-0.0695028880,-0.0597629909,-0.0564090850,0.0344021278,-0.0295174595,0.0382589597,0.0501199055,0.0451391935,0.0115834710,-0.0005671868,-0.0089584176,-0.0104781139,0.0139263159,-0.0062231013,-0.0647868946,-0.0013521578,-0.0135186943,-0.1326363467,-0.1058661067,-0.1265402286,-0.0604226629,-0.0447476788,-0.0004726189,0.0215864561,-0.0756033499,0.0347128625,0.0219891373,0.0449801350,0.0092440231,0.0000000006,0.0089693093,0.0190306156,0.0747662521,-0.0157892006,-0.0113960446,0.0501543446,-0.0532063386,-0.1179255350,-0.1000289221,-0.1131087765,-0.0700953629,-0.0145585755,-0.0209835081,-0.0037162902,-0.0376066193,0.0105189595,0.0172989158,0.0408399055,0.0091898144,0.0000000266,0.0096129378,0.0436343927,0.0725799861,0.0370005935,-0.0733077005,0.0434289923,-0.0030212947,-0.0392246518,-0.0754850148,-0.1164528192,-0.0513610953,0.0316441794,-0.0468353246,-0.0513848935,-0.0128498556,0.0079251290,0.0035197059,0.0154243730,0.0079035835,-0.0000000000,-0.0000000128,0.0462573483,0.0551433658,0.0290723557,0.0325870603,0.0699331639,-0.0414079321,0.0115165506,-0.0413478298,-0.0644007835,-0.0109540234,0.0005274116,-0.0710828497,-0.0162544481,-0.0060332891,0.0332077681,-0.0298432092,-0.0090301229,-0.0011461459,-0.0015224715,-0.0015222868,0.0046828427,0.0604118927,0.0409838777,0.0202136346,0.0229212110,0.0478513906,-0.0541119358,-0.0682677032,0.0019664682,0.0725708429,-0.0379614049,-0.0536582298,-0.0437622913,-0.0162067062,0.0053021387,-0.0140756276,-0.0119392128,-0.0211976798,-0.0015225975,-0.0000002752,0.0029949073,-0.0452756684,0.0205003748,0.0765801672,0.0473943082,0.1305091341,0.0391856257,0.0212553295,0.0005685274,-0.0351061727,-0.0145945149,-0.0460463645,-0.0469303145,-0.0344062529,-0.0719365794,-0.0327597651,-0.0268695442,-0.0327676044,-0.0000000008,0.0020803630,-0.0513323541,-0.0507818151,-0.0007228734,0.0520092642,0.0588160018,0.0532653909,0.1021524018,0.0143762736,0.0089247651,-0.0322902460,-0.0331194011,-0.0322674861,-0.0496065270,-0.0687133960,-0.0413446591,-0.0481963709,-0.0862193990,-0.0337822413,0.0000000001,-0.0356727383,-0.0400445341,-0.0349041320,-0.0327355319,-0.0266314626,0.0406478524,0.0739344760,0.0698026326,0.0378620836,0.0555763870,0.0416060957,-0.0196854023,-0.0884713859,-0.0802132806,-0.0158129256,-0.0275049243,-0.0779981105,-0.0814473788,-0.0520443840,0.0000000325,-0.0015845571,-0.0118546101,-0.0269949405,-0.0229790875,-0.0427348884,0.0098471497,0.0535210974,0.0669447660,0.0611703202,0.0454727940,0.0162892344,0.0182512629,-0.0654984560,-0.1042364657,-0.0956095192,-0.0529349067,-0.0622085268,-0.0698113103,-0.0220895975,-1.1629655669,-0.0034912893,-0.0044834286,-0.0053366960,-0.0013566703,-0.0027351099,-0.0027323690,-0.0003221613,-0.0160249717,-0.0160235160,-0.0095518292,-0.0092262396,-0.0000000033,-0.0009126235,-0.0010242229,-0.0135475688,-0.0042105410,0.0029169301,-0.0077318972,-0.0117207184,-0.0056548490,-0.0120918896,-0.0079104800,-0.0415395208,-0.0322076053,-0.0067598343,-0.0030542187,-0.0048189296,-0.0164489078,-0.0422311188,-0.0518540591,-0.0286877342,-0.0156625069,0.0017712989,0.0139465634,0.0045568845,0.0589379760,0.0509094037,0.0343543082,0.0149575146,-0.0029411875,-0.0108101046,-0.0262514955,-0.0452174956,-0.0691195719,-0.0297129880,-0.0170817460,-0.0412164717,-0.0431811860,-0.0615313926,-0.0793800485,-0.0728792975,-0.0431770642,0.0099179860,0.0518429488,0.0451824989,0.1080162530,0.0861807128,0.0171920609,0.0017405309,-0.0400340980,-0.0108102575,-0.0150480785,-0.0333316427,-0.0868083451,-0.0862086953,-0.0712796643,-0.0705146869,-0.0696725091,-0.1331811254,-0.0790635768,-0.0429489252,-0.0032391063,0.0438929996,0.1064097641,0.0870218003,0.1160562912,0.1144766663,0.0431750263,0.0089048182,-0.0189058418,-0.0141683267,-0.0284166075,-0.0439249934,-0.0783485968,-0.0704733566,-0.0860192639,-0.0648559525,-0.1014215926,-0.0785242071,0.0181233507,0.0252155935,0.0129868128,0.0680646803,0.0649968402,-0.0524396055,0.0590006959,0.0970883749,0.1062435972,0.0100477888,-0.0213263930,-0.0355120548,-0.0265965316,0.0134587186,-0.0332113087,-0.0810831329,-0.1113556616,-0.0965957601,-0.0703490134,-0.0232565834,0.0268555820,0.0636194873,0.0035888163,0.0128085721,0.0977114948,0.0080746174,0.0370318581,0.0388156826,0.0639758683,0.0177022305,-0.0312607023,-0.0355120572,-0.0355168630,-0.0431827147,-0.0048046302,-0.0786311531,-0.0847392529,-0.1304531520,-0.0539476566,0.0260906286,0.0143846513,0.0660089905,0.0545720310,0.0569521146,0.0684009546,0.0572015146,0.0463025286,0.0162122780,0.0883418618,0.0101011934,-0.0067785426,-0.0223697411,-0.0372801927,-0.0362206657,-0.0625207251,-0.0551118588,0.0014747129,-0.0604295537,0.0286970519,-0.0403372443,0.0340779481,0.0904752857,0.0452012246,0.0115482828,0.0263649859,-0.0226977627,0.1078366286,0.0272958383,0.0663361267,0.0667746882,0.0031894314,0.0000000016,-0.0208471146,0.0157190742,-0.0448802009,0.0008211284,-0.0687423061,0.0014811585,0.0077737776,0.0180236037,0.0478034525,0.0096045715,0.0351430787,0.0511530471,0.0339836475,0.0055359212,-0.0006313850,0.0500631457,0.0400300776,0.0282829289,0.0311580814,-0.0000000005,0.0021989335,0.1053659640,0.1045062780,0.0668402056,-0.0313420458,-0.0310902455,-0.0316141525,0.0220784271,0.0359012825,-0.0342154197,-0.0110007741,0.0458677099,0.0218311945,0.0368761456,0.0269555940,0.0408023724,0.0210112871,0.0298482306,0.0216899566,0.0003177581,0.0318574201,0.0908988511,0.1268652994,0.0106370037,0.0404517752,0.0154735548,-0.0005246090,0.0307726811,0.0450355906,0.0323698828,-0.0311642114,-0.0680604368,0.0340005128,-0.0030051613,0.0464852191,0.0430373326,0.0234921900,0.0226132158,0.0201431525,0.0003174723,0.0239761015,0.0877528518,0.0693172513,0.0343906329,0.0851822456,0.0704684733,0.0796779248,0.1036204931,0.0193072997,0.0121108460,-0.0524947565,-0.0456953510,0.0045709646,0.0215943878,0.0655079983,0.0254995502,0.0756435883,0.0269513405,0.0232369346,0.0000000004,0.0028231339,0.0297387901,0.0118020400,0.0419458222,0.0396103284,-0.0034512626,-0.0192721450,0.0898595245,0.0151374939,-0.0444563865,-0.0300820768,-0.0142825439,-0.0030896116,0.0500950599,0.0891278219,0.0308737712,0.0748722659,0.0356978377,0.0240730296,-0.0000000011,0.0046083692,0.0022398781,-0.0035956905,0.0324692807,0.0383506065,0.0173151080,-0.0181996165,-0.0312424707,-0.0040283706,0.0014696883,-0.0367111709,-0.0258470845,0.0405351370,0.1042586861,0.0720695126,0.0158905590,0.0376444179,0.0490020167,0.0260463415,-0.0000000001,0.0000000365,-0.0113634975,0.0165492914,-0.0245636275,-0.0237285732,-0.0687110770,-0.0176290686,-0.0099785406,-0.0010987335,-0.0325498547,0.0115059616,-0.0205759466,0.0539531707,0.0080925838,0.0347354191,0.0102731392,0.0703675802,0.0530358791,0.0309653453,-0.0108106904,-0.0108111080,-0.0176195478,-0.0429503103,-0.0983838249,-0.0969926061,-0.0650571865,-0.0091448798,0.0197321584,0.0042125269,0.0016010014,0.0171693052,0.0430613799,0.0526343333,0.0144864358,0.0188237268,-0.0078498098,0.0433334524,0.0473076508,0.0372285733,-0.0108107546,0.0000002301,-0.0394713897,-0.0722183627,-0.1073002101,-0.1422834174,-0.1079551758,-0.1844766590,-0.0442563171,-0.0069341309,0.0599678807,0.0373500263,0.0995773721,0.0725476078,0.0613916877,0.0845608397,0.0532113670,0.0252680205,0.0724300427,0.0198680312,-0.0000000003,-0.0223697752,-0.0507788733,-0.0443600235,-0.0760548245,-0.0833176836,-0.0976276198,-0.1090888423,-0.0837830903,0.0026820395,0.0043753179,0.0259794220,0.0034767767,0.0500955035,0.0540324422,0.0950714307,0.0281475929,0.0133128025,0.0611483630,0.0200914367,-0.0000000456,-0.0232833696,-0.0437905457,-0.0416398870,-0.0391574270,-0.0455826996,-0.0588294521,-0.0940786254,-0.0754080112,-0.0775973489,-0.0820651154,0.0140648003,0.0132409487,0.0801145243,0.1076331009,0.0535294713,-0.0043341665,0.0356301719,0.0339889754,0.0350168515,0.0000000339,-0.0032849420,-0.0281017560,-0.0469795892,-0.0442380459,-0.0446312547,-0.0265903567,-0.0616800802,-0.0698311939,-0.0625312070,-0.0557088460,-0.0251431787,0.0166489604,0.0383085179,0.1048307068,0.1033209356,0.0453771960,0.0215310959,0.0636922053,-0.0667350055,1.1663305681,0.0034963752,0.0044823281,0.0053381151,0.0013583183,0.0027217943,0.0027220963,0.0003225510,0.0160322116,0.0160299538,0.0095722653,0.0092485473,-0.0000000072,0.0008719923,0.0009809982,0.0135645150,0.0042060687,-0.0029221065,0.0077378130,0.0117381638,0.0056659263,0.0121038418,0.0079178291,0.0415821035,0.0322312405,0.0067634721,0.0030441078,0.0048273314,0.0165129215,0.0423293129,0.0519712973,0.0287788061,0.0157168338,-0.0018668460,-0.0140512768,-0.0045723471,-0.0590575931,-0.0510096588,-0.0344106675,-0.0149971910,0.0029431195,0.0108235182,0.0262802176,0.0452395807,0.0691418893,0.0297429185,0.0171110414,0.0413162414,0.0433117576,0.0617130332,0.0795665882,0.0730503487,0.0432129180,-0.0100256459,-0.0519675853,-0.0452569987,-0.1082119379,-0.0863421604,-0.0172153080,-0.0017647538,0.0400738183,0.0108227155,0.0150618099,0.0333652592,0.0868962788,0.0862780388,0.0714063533,0.0706391049,0.0698321502,0.1335373697,0.0792753249,0.0430454346,0.0032347782,-0.0439923421,-0.1066417422,-0.0871989834,-0.1162977728,-0.1147405777,-0.0432929746,-0.0089760160,0.0189199334,0.0141746764,0.0284251231,0.0439576127,0.0784433381,0.0705711487,0.0861332234,0.0649788208,0.1017015356,0.0788083596,-0.0181392494,-0.0252933193,-0.0130367832,-0.0682094075,-0.0651311320,0.0525858320,-0.0591727952,-0.0973373472,-0.1065185961,-0.0100885914,0.0213730284,0.0355849542,0.0265692156,-0.0135712851,0.0332100408,0.0812307867,0.1115263373,0.0967650764,0.0705205351,0.0233525820,-0.0268920801,-0.0637926642,-0.0035617626,-0.0127481612,-0.0979141542,-0.0081014174,-0.0370979577,-0.0389301146,-0.0641634909,-0.0177622962,0.0313229597,0.0355842870,0.0355837900,0.0432257098,0.0048000160,0.0787670004,0.0848560681,0.1306659448,0.0541026622,-0.0260988465,-0.0142947023,-0.0660039084,-0.0546287617,-0.0571010085,-0.0684882617,-0.0572779391,-0.0464397591,-0.0162637966,-0.0884614517,-0.0101035462,0.0067887263,0.0224224531,0.0373683614,0.0363248316,0.0626076112,0.0551849043,-0.0015678306,0.0606102697,-0.0286932665,0.0404064108,-0.0341916298,-0.0906611528,-0.0451941925,-0.0115564057,-0.0263972222,0.0227990299,-0.1081109046,-0.0273241404,-0.0663978029,-0.0668946883,-0.0031921923,0.0000002664,0.0209155441,-0.0157189993,0.0449678440,-0.0008904383,0.0689098984,-0.0014091413,-0.0077487010,-0.0181595617,-0.0481138876,-0.0097349574,-0.0352236900,-0.0511994362,-0.0340457899,-0.0055041576,0.0006426942,-0.0501639498,-0.0400248014,-0.0282841333,-0.0312235947,-0.0000000001,-0.0021805981,-0.1055629244,-0.1046980224,-0.0669735562,0.0314756247,0.0311987886,0.0316781418,-0.0222625724,-0.0361960809,0.0341153528,0.0109556397,-0.0460644369,-0.0219226866,-0.0368634963,-0.0269793073,-0.0408353279,-0.0209766927,-0.0298430125,-0.0217326123,-0.0003179046,-0.0319183666,-0.0910376346,-0.1270371966,-0.0106091437,-0.0404363183,-0.0153887070,0.0005675476,-0.0310016778,-0.0452623851,-0.0326223676,0.0310810446,0.0680449829,-0.0341618397,0.0030276470,-0.0466303632,-0.0430496215,-0.0234487436,-0.0225874009,-0.0201647154,-0.0003179002,-0.0240303249,-0.0878801142,-0.0694320265,-0.0344481863,-0.0853689134,-0.0705385677,-0.0797973368,-0.1039834535,-0.0195027769,-0.0123010947,0.0524594083,0.0456626380,-0.0046170634,-0.0216207559,-0.0657363554,-0.0254920443,-0.0757254084,-0.0269417713,-0.0232682205,-0.0000000044,-0.0028200823,-0.0297626407,-0.0117258060,-0.0420387924,-0.0396424686,0.0036261340,0.0192597318,-0.0901574965,-0.0153119203,0.0443521482,0.0300150915,0.0142350431,0.0030141260,-0.0501996640,-0.0893342963,-0.0309131557,-0.0749567081,-0.0356989744,-0.0241002635,-0.0000000001,-0.0046009297,-0.0021939951,0.0036584721,-0.0324958275,-0.0384865496,-0.0172250549,0.0182777957,0.0312603868,0.0039448447,-0.0016380126,0.0366625182,0.0259132344,-0.0407210028,-0.1045346024,-0.0722019111,-0.0159005705,-0.0376970561,-0.0490585074,-0.0260771762,-0.0000000025,0.0000000001,0.0114348135,-0.0165213652,0.0246295921,0.0237937127,0.0689160819,0.0176014519,0.0100448030,0.0010433741,0.0325081514,-0.0115522290,0.0205793103,-0.0541719842,-0.0081387333,-0.0348051956,-0.0102686221,-0.0705210793,-0.0531402541,-0.0310126388,0.0108224498,0.0108238518,0.0176363769,0.0430822525,0.0985600238,0.0971428064,0.0651496061,0.0092355569,-0.0198503912,-0.0043188805,-0.0015768506,-0.0170783319,-0.0431531505,-0.0527669965,-0.0145970796,-0.0189036735,0.0078669991,-0.0434011894,-0.0473899672,-0.0373063923,0.0108225893,-0.0000000357,0.0395414901,0.0722727764,0.1074789481,0.1425429967,0.1081204956,0.1848964638,0.0443278741,0.0069641655,-0.0600595244,-0.0374128148,-0.0997242927,-0.0727082136,-0.0615804795,-0.0847532109,-0.0534087610,-0.0253315961,-0.0725615148,-0.0199482532,0.0000000028,0.0224245384,0.0508140048,0.0443725467,0.0761533360,0.0834611511,0.0977669950,0.1092360244,0.0840094323,-0.0026924620,-0.0043626596,-0.0261011951,-0.0035762596,-0.0501987803,-0.0541826146,-0.0953193715,-0.0282193832,-0.0133331284,-0.0613328920,-0.0201674511,-0.0000000058,0.0232956031,0.0438294000,0.0416590089,0.0391563034,0.0455680147,0.0589083001,0.0942704440,0.0755730207,0.0777364022,0.0822505386,-0.0140628316,-0.0133408301,-0.0804063562,-0.1078788064,-0.0536048075,0.0043591736,-0.0356926976,-0.0341014176,-0.0351369152,-0.0000000000,0.0032871756,0.0281170688,0.0470125773,0.0442652642,0.0446135219,0.0266290606,0.0618223039,0.0700000745,0.0626829783,0.0558350154,0.0251803598,-0.0166591151,-0.0384944057,-0.1051510326,-0.1036134630,-0.0454699727,-0.0215891804,-0.0638373878,0.0668391058,0.2300439708,-0.0002059684,-0.0067880033,-0.0067866383,-0.0001343023,-0.0094875918,-0.0094891508,0.0003677918,-0.0054050075,-0.0054052330,0.0078327615,0.0074643025,0.0000000000,-0.0377470597,-0.0390135680,-0.0001094764,-0.0063076675,-0.0057694325,-0.0033344872,-0.0008315869,-0.0001402944,-0.0017465457,-0.0029695161,-0.0129529646,-0.0151763395,-0.0036383753,-0.0091204270,0.0053807654,0.0354674997,0.0377405153,0.0485419844,0.0501127555,0.0308795681,-0.0610969121,-0.0633201934,-0.0107203262,-0.0422127406,-0.0361528435,-0.0233614281,-0.0145756385,-0.0019916642,-0.0015199054,-0.0056380414,-0.0327804800,-0.0487564901,-0.0044991328,0.0112806414,0.0448597581,0.0694335375,0.0885970408,0.0842730294,0.0786586783,0.0089177664,-0.0406529327,-0.0321807964,-0.0241043332,-0.0660059189,-0.0761948698,-0.0366284397,-0.0222434550,-0.0118548317,-0.0015199267,-0.0044004071,-0.0108411471,-0.0291798404,-0.0226329695,0.0379726622,0.0481088346,0.0724692553,0.1441873685,0.0943926990,0.0560709401,0.0191443561,-0.0181038007,-0.0415217297,-0.0432161394,-0.0881022747,-0.1058987324,-0.0688156782,-0.0435010802,-0.0102207782,-0.0081297024,-0.0181093209,-0.0144330667,-0.0108398290,0.0164213989,0.0428815944,0.0636158677,0.1236654846,0.1401226985,0.0333190141,-0.0026385503,-0.0069337177,-0.0221033966,-0.0408482390,0.0161968669,-0.0711417505,-0.0923772552,-0.0949073699,-0.0479520991,-0.0056844398,0.0011934098,-0.0481650113,-0.0474264134,-0.0040537767,0.0505477261,0.0507522455,0.0691392419,0.0870041108,0.0551035393,-0.0012899193,-0.0692867724,0.0045469568,0.0299450522,-0.0484454657,-0.0177255544,-0.0293188997,-0.0342440660,-0.0831728666,-0.0484988004,-0.0040823234,0.0011930544,0.0011930754,-0.0087289265,0.0236115878,0.0579688141,0.0321486284,0.0515219623,0.0673164934,0.0090411117,0.0412611123,0.0373302810,0.0234099234,-0.0338843563,0.0216574256,0.0245475429,-0.0506882142,-0.0065543822,-0.0122414628,-0.0213285474,-0.0022385406,0.0020799147,0.0156946128,0.0507741139,0.0383530587,0.0240830042,-0.0261450907,0.0603187445,0.0285111681,-0.0262991695,-0.0629457227,-0.0461342178,0.0441451081,-0.0065214216,0.0268726656,0.0721356143,-0.0738876844,0.0023550721,0.0233784951,-0.0194771396,-0.0007524898,-0.0000000314,0.0148483320,0.0375534700,0.0354290481,-0.0400040928,0.0243840943,0.0105648883,0.0398108709,-0.0906949773,-0.1909686827,-0.0822734547,-0.0094515291,0.0243518066,0.0157557317,0.0436339823,0.0035549655,-0.0048611491,0.0374482816,0.0296798103,-0.0115626425,-0.0000000005,0.0129391039,-0.0070575154,-0.0312276366,-0.0498620746,0.0117560785,0.0252234971,-0.0003691308,-0.1138697431,-0.1520068940,-0.1016349181,-0.0322150791,-0.0687339627,-0.0359104384,0.0656288923,0.0130339854,0.0277669092,0.0400754042,0.0369265930,-0.0024589283,-0.0005671028,-0.0132672445,-0.0026774022,-0.0059003757,0.0070555877,0.0177448147,0.0505658129,0.0035855387,-0.1322615421,-0.0874591904,-0.1144191841,-0.0694910975,-0.0597425285,-0.0564128023,0.0344175658,-0.0295177756,0.0382502859,0.0501175666,0.0451335978,0.0115785684,-0.0005671241,-0.0089638622,-0.0104968753,0.0139069395,-0.0062205499,-0.0647930676,-0.0013625274,-0.0135433119,-0.1326479525,-0.1058651547,-0.1265342336,-0.0604103356,-0.0447366230,-0.0004749186,0.0215940460,-0.0756046846,0.0347125886,0.0219780735,0.0449733205,0.0092390915,-0.0000000199,0.0089683995,0.0190215238,0.0747598892,-0.0157941521,-0.0113923897,0.0501444138,-0.0531969744,-0.1179346537,-0.1000250459,-0.1130899543,-0.0700867926,-0.0145573618,-0.0209746309,-0.0037112104,-0.0376195609,0.0105132436,0.0172879708,0.0408332326,0.0091843302,0.0000000066,0.0096118216,0.0436277998,0.0725733552,0.0369880533,-0.0733021694,0.0434303289,-0.0030107172,-0.0392205068,-0.0754696411,-0.1164396409,-0.0513548184,0.0316471608,-0.0468319882,-0.0513972588,-0.0128601549,0.0079270831,0.0035194895,0.0154183366,0.0078999180,0.0000000012,0.0000000000,0.0462545767,0.0551421382,0.0290784582,0.0325897960,0.0699330328,-0.0413883920,0.0115270357,-0.0413403274,-0.0643829594,-0.0109503437,0.0005342760,-0.0710894130,-0.0162491081,-0.0060349043,0.0332088797,-0.0298490938,-0.0090345590,-0.0011528035,-0.0015199261,-0.0015198871,0.0046880867,0.0604106496,0.0409988663,0.0202312974,0.0229329762,0.0478569073,-0.0541148542,-0.0682710452,0.0019801388,0.0725584118,-0.0379648152,-0.0536633956,-0.0437629192,-0.0162067262,0.0053081025,-0.0140751868,-0.0119392375,-0.0212020458,-0.0015196508,-0.0000000053,0.0030010647,-0.0452594357,0.0205120936,0.0765942919,0.0474141227,0.1305317583,0.0391986817,0.0212575428,0.0005591307,-0.0351023745,-0.0145941855,-0.0460582538,-0.0469417941,-0.0344179507,-0.0719423791,-0.0327578932,-0.0268742886,-0.0327665571,-0.0000000024,0.0020808574,-0.0513199891,-0.0507710543,-0.0007090906,0.0520208262,0.0588285970,0.0532870847,0.1021652153,0.0143774863,0.0089237409,-0.0322843948,-0.0331186483,-0.0322681974,-0.0496121386,-0.0687266746,-0.0413465809,-0.0481973016,-0.0862230108,-0.0337813558,-0.0000000000,-0.0356676992,-0.0400360939,-0.0348943793,-0.0327242616,-0.0266154905,0.0406539909,0.0739447919,0.0698074778,0.0378737470,0.0555917302,0.0416041982,-0.0196776398,-0.0884742480,-0.0802203000,-0.0158201163,-0.0274992295,-0.0779972104,-0.0814458514,-0.0520481508,-0.0000000133,-0.0015838337,-0.0118492320,-0.0269841122,-0.0229703009,-0.0427224329,0.0098509236,0.0535313578,0.0669540452,0.0611784924,0.0454830489,0.0162875468,0.0182471722,-0.0654964415,-0.1042444301,-0.0956156688,-0.0529370492,-0.0622066688,-0.0698211176,-0.0220798250,0.2300280175,-0.0002062319,-0.0067870064,-0.0067874003,-0.0001344057,-0.0094888903,-0.0094872635,0.0003676056,-0.0054070568,-0.0054068843,0.0078324353,0.0074647922,0.0000000007,-0.0377522387,-0.0390177289,-0.0001112618,-0.0063085365,-0.0057701540,-0.0033354591,-0.0008325079,-0.0001405243,-0.0017474911,-0.0029701583,-0.0129575472,-0.0151797159,-0.0036392837,-0.0091216094,0.0053820969,0.0354672814,0.0377367624,0.0485403154,0.0501110071,0.0308815653,-0.0610983826,-0.0633198519,-0.0107203034,-0.0422153667,-0.0361541542,-0.0233610611,-0.0145753479,-0.0019920563,-0.0015203330,-0.0056403977,-0.0327854200,-0.0487649805,-0.0045004263,0.0112809429,0.0448576889,0.0694351706,0.0885924438,0.0842737652,0.0786573315,0.0089149306,-0.0406574686,-0.0321790229,-0.0241019591,-0.0660025540,-0.0761881542,-0.0366342031,-0.0222471489,-0.0118592851,-0.0015208447,-0.0044025042,-0.0108438109,-0.0291874625,-0.0226432981,0.0379673288,0.0481043078,0.0724672447,0.1441965046,0.0943906869,0.0560691426,0.0191433599,-0.0181009692,-0.0415211147,-0.0432038622,-0.0880949847,-0.1058932673,-0.0688106491,-0.0435031763,-0.0102229928,-0.0081325928,-0.0181125369,-0.0144391710,-0.0108471760,0.0164161310,0.0428858714,0.0636126544,0.1236575475,0.1401291128,0.0333303580,-0.0026427119,-0.0069276695,-0.0221150029,-0.0408484664,0.0161952082,-0.0711424413,-0.0923798839,-0.0949087574,-0.0479595822,-0.0056875066,0.0011925403,-0.0481704492,-0.0474311259,-0.0040537551,0.0505495319,0.0507467213,0.0691328839,0.0869942375,0.0551108495,-0.0012958303,-0.0692905134,0.0045482097,0.0299523884,-0.0484438537,-0.0177262114,-0.0293186232,-0.0342431010,-0.0831705708,-0.0485010494,-0.0040825544,0.0011912818,0.0011910536,-0.0087341253,0.0236099762,0.0579642507,0.0321473464,0.0515222886,0.0673226674,0.0090567001,0.0412729143,0.0373509932,0.0234216426,-0.0338894283,0.0216632684,0.0245534107,-0.0506895467,-0.0065494877,-0.0122338982,-0.0213314824,-0.0022390115,0.0020790423,0.0156941660,0.0507811645,0.0383443683,0.0240770163,-0.0261475557,0.0603318513,0.0285046248,-0.0263086125,-0.0629502314,-0.0461278929,0.0441543231,-0.0065197724,0.0268773845,0.0721342956,-0.0738870275,0.0023582836,0.0233842515,-0.0194747939,-0.0007523518,0.0000000003,0.0148488319,0.0375604086,0.0354265565,-0.0400152650,0.0243778814,0.0105606826,0.0398156062,-0.0907004601,-0.1909851227,-0.0822817163,-0.0094473301,0.0243605190,0.0157602385,0.0436405802,0.0035557333,-0.0048607922,0.0374529605,0.0296840844,-0.0115590939,0.0000000026,0.0129397624,-0.0070503490,-0.0312174878,-0.0498638815,0.0117596345,0.0252252151,-0.0003698042,-0.1138760725,-0.1520079750,-0.1016474049,-0.0322178198,-0.0687259397,-0.0359102085,0.0656346302,0.0130381748,0.0277731266,0.0400762066,0.0369352707,-0.0024560664,-0.0005672695,-0.0132653940,-0.0026673449,-0.0058918544,0.0070570028,0.0177445723,0.0505556750,0.0035828265,-0.1322650443,-0.0874585476,-0.1144271339,-0.0694976963,-0.0597496834,-0.0564152807,0.0344201783,-0.0295179508,0.0382608996,0.0501215002,0.0451415554,0.0115809402,-0.0005671180,-0.0089639204,-0.0104912144,0.0139135539,-0.0062161367,-0.0647887758,-0.0013587794,-0.0135392821,-0.1326427837,-0.1058689712,-0.1265348588,-0.0604156924,-0.0447466425,-0.0004685474,0.0215975130,-0.0756060320,0.0347179445,0.0219846948,0.0449804477,0.0092422809,0.0000000000,0.0089686439,0.0190239433,0.0747680400,-0.0157861265,-0.0113918579,0.0501615902,-0.0532030193,-0.1179393816,-0.1000269226,-0.1130993825,-0.0700932662,-0.0145580774,-0.0209870429,-0.0037163113,-0.0376182232,0.0105196430,0.0172935609,0.0408382006,0.0091884205,-0.0000002022,0.0096118969,0.0436335522,0.0725751769,0.0369925222,-0.0733145310,0.0434423615,-0.0030297524,-0.0392259892,-0.0754768331,-0.1164482967,-0.0513637352,0.0316369509,-0.0468395258,-0.0513950402,-0.0128569846,0.0079323723,0.0035219836,0.0154258886,0.0079010095,0.0000000000,-0.0000000000,0.0462567889,0.0551430113,0.0290785159,0.0325842745,0.0699343208,-0.0413681620,0.0115294300,-0.0413336291,-0.0643950229,-0.0109503241,0.0005356035,-0.0710918407,-0.0162545745,-0.0060321775,0.0332107068,-0.0298483311,-0.0090329831,-0.0011498532,-0.0015208113,-0.0015208870,0.0046868389,0.0604120133,0.0409932702,0.0202264512,0.0229328678,0.0478623077,-0.0541105686,-0.0682796638,0.0019870846,0.0725665865,-0.0379633337,-0.0536651942,-0.0437638227,-0.0162069305,0.0053075770,-0.0140779090,-0.0119359400,-0.0212004614,-0.0015211346,0.0000000001,0.0029984686,-0.0452704972,0.0205059759,0.0765867788,0.0474144094,0.1305324580,0.0392001111,0.0212494270,0.0005614534,-0.0351095935,-0.0145909750,-0.0460600621,-0.0469350898,-0.0344124677,-0.0719427863,-0.0327580962,-0.0268704552,-0.0327679716,0.0000000129,0.0020791501,-0.0513281047,-0.0507770151,-0.0007134897,0.0520190891,0.0588216097,0.0532770822,0.1021631027,0.0143772481,0.0089235488,-0.0322902794,-0.0331249438,-0.0322730398,-0.0496158878,-0.0687201556,-0.0413455883,-0.0482013553,-0.0862290895,-0.0337825394,0.0000000004,-0.0356723405,-0.0400426636,-0.0348994205,-0.0327284753,-0.0266240002,0.0406540630,0.0739436006,0.0698082351,0.0378655145,0.0555883385,0.0416077859,-0.0196815898,-0.0884823601,-0.0802247273,-0.0158204882,-0.0274964565,-0.0779934392,-0.0814497792,-0.0520455341,-0.0000000311,-0.0015843961,-0.0118521777,-0.0269899654,-0.0229745605,-0.0427304781,0.0098496429,0.0535286188,0.0669539301,0.0611773530,0.0454803660,0.0162902434,0.0182516217,-0.0654990213,-0.1042457413,-0.0956153305,-0.0529370394,-0.0622087748,-0.0698191171,-0.0220871126,-0.2277175437,0.0002101778,0.0067753139,0.0067762421,0.0001363577,0.0094709032,0.0094729164,-0.0003676703,0.0054231375,0.0054192673,-0.0078066461,-0.0074389015,0.0000001566,0.0376681681,0.0389328151,0.0001325194,0.0063095307,0.0057611167,0.0033409538,0.0008460566,0.0001456146,0.0017626806,0.0029736419,0.0129864035,0.0151960544,0.0036446127,0.0091054664,-0.0053714652,-0.0353837432,-0.0376144043,-0.0483894679,-0.0499968586,-0.0308105455,0.0609713904,0.0631738824,0.0107104856,0.0420747262,0.0360375555,0.0232895705,0.0145417931,0.0019942467,0.0015328463,0.0056637307,0.0327733494,0.0487542921,0.0045227906,-0.0112478601,-0.0447318057,-0.0692738670,-0.0883848204,-0.0840308485,-0.0784373391,-0.0088840209,0.0405377974,0.0320400974,0.0240144883,0.0657650963,0.0759743233,0.0365640603,0.0222267038,0.0118965986,0.0015348891,0.0044171659,0.0108667511,0.0292234280,0.0227026385,-0.0378174514,-0.0479495444,-0.0722895033,-0.1437660211,-0.0941609765,-0.0559536410,-0.0191524169,0.0179822752,0.0412559524,0.0430205269,0.0877899229,0.1055940341,0.0686502250,0.0434363601,0.0102348915,0.0081367822,0.0181253041,0.0144708303,0.0109145574,-0.0163534284,-0.0427278265,-0.0634523505,-0.1233129476,-0.1397566068,-0.0333221458,0.0025761801,0.0069076959,0.0219573410,0.0406579739,-0.0161014953,0.0709082482,0.0920928126,0.0946390487,0.0478498723,0.0056823168,-0.0011661061,0.0481126904,0.0473111291,0.0040524211,-0.0503942986,-0.0505722375,-0.0689053500,-0.0867535714,-0.0549726516,0.0012465664,0.0690672320,-0.0045226990,-0.0299086778,0.0481823052,0.0176562079,0.0292005889,0.0341351018,0.0829395520,0.0483846874,0.0040959353,-0.0011645831,-0.0011676135,0.0087563735,-0.0236117081,-0.0578240436,-0.0320109450,-0.0512959664,-0.0671385437,-0.0090664993,-0.0411681925,-0.0373340879,-0.0234114640,0.0337458394,-0.0217580702,-0.0246223340,0.0505046583,0.0064967137,0.0120963207,0.0212664938,0.0022453069,-0.0020733699,-0.0156433143,-0.0507031824,-0.0382505453,-0.0240068258,0.0260539120,-0.0601656239,-0.0284594167,0.0263662435,0.0628207678,0.0459067520,-0.0441135729,0.0065020652,-0.0268555919,-0.0719846250,0.0735769243,-0.0024113361,-0.0234040066,0.0193527732,0.0007477789,-0.0000000037,-0.0148237555,-0.0375763815,-0.0354004444,0.0398603198,-0.0242411081,-0.0105282840,-0.0397167220,0.0905094703,0.1905284756,0.0821237874,0.0093885843,-0.0244136759,-0.0157606198,-0.0435792175,-0.0035756039,0.0047714352,-0.0374147447,-0.0296514052,0.0115001539,-0.0000000000,-0.0129207927,0.0068462391,0.0309157463,0.0496289918,-0.0116724477,-0.0251157036,0.0004692098,0.1136060648,0.1516736695,0.1015173950,0.0321555976,0.0685229552,0.0358060979,-0.0655458123,-0.0130500169,-0.0277750405,-0.0400123587,-0.0368920942,0.0024204601,0.0005668685,0.0131929603,0.0025094739,0.0056424432,-0.0070878525,-0.0177668062,-0.0505077390,-0.0035600442,0.1319437227,0.0872342857,0.1141516415,0.0693970109,0.0597097564,0.0562597873,-0.0343243824,0.0294051275,-0.0382323395,-0.0500425146,-0.0450741519,-0.0115922794,0.0005667915,0.0089040896,0.0103187271,-0.0140360658,0.0061477521,0.0645204424,0.0012334112,0.0133779007,0.1322278463,0.1056277351,0.1262824212,0.0603539752,0.0447037025,0.0004780826,-0.0215633789,0.0753895323,-0.0346715007,-0.0220541552,-0.0449266173,-0.0092599527,0.0000000006,-0.0089575452,-0.0190791241,-0.0747104479,0.0156835732,0.0113549279,-0.0500118653,0.0531451590,0.1175630810,0.0997899516,0.1129358732,0.0700010004,0.0145460496,0.0209608672,0.0036499936,0.0374395387,-0.0105301104,-0.0173648773,-0.0408028635,-0.0092079240,0.0000000223,-0.0096004448,-0.0435893824,-0.0725091561,-0.0369933579,0.0730667958,-0.0433978978,0.0030388845,0.0392089418,0.0753346433,0.1162167994,0.0512949430,-0.0315405427,0.0467019748,0.0511326431,0.0127287022,-0.0079257289,-0.0035550841,-0.0154423934,-0.0079222845,0.0000001982,-0.0000000000,-0.0461855563,-0.0551034141,-0.0290688697,-0.0325577890,-0.0697280923,0.0413485583,-0.0114485935,0.0413090723,0.0643393615,0.0108993574,-0.0005000582,0.0708501006,0.0161907406,0.0059628364,-0.0331591502,0.0297144466,0.0089710183,0.0011093619,0.0015335486,0.0015355838,-0.0046478538,-0.0603037236,-0.0408771591,-0.0201415068,-0.0228127771,-0.0477747601,0.0539774051,0.0681497687,-0.0019423222,-0.0723972353,0.0378204269,0.0534444132,0.0436102226,0.0161233107,-0.0052850077,0.0140255766,0.0118924935,0.0211216221,0.0015350925,0.0000000000,-0.0029625553,0.0452406416,-0.0203938759,-0.0763206855,-0.0472080198,-0.1300366073,-0.0390985613,-0.0212418475,-0.0006473930,0.0350388581,0.0144525061,0.0458420370,0.0466886243,0.0341705874,0.0717133975,0.0327072825,0.0267672276,0.0326979704,-0.0000000001,-0.0020723410,0.0512557361,0.0507011277,0.0007922867,-0.0518346918,-0.0586468839,-0.0530913968,-0.1019204531,-0.0143979484,-0.0089630424,0.0321658567,0.0330234765,0.0321191021,0.0494143135,0.0684344068,0.0412196597,0.0481068230,0.0859999390,0.0337110521,0.0000000178,0.0355978562,0.0399778476,0.0348804167,0.0327211182,0.0266293820,-0.0405475933,-0.0737213805,-0.0696428674,-0.0377520088,-0.0554420026,-0.0416144423,0.0195848140,0.0882069681,0.0799159923,0.0157388954,0.0274980510,0.0778228587,0.0812524599,0.0518929709,0.0000000296,0.0015853201,0.0118700587,0.0269962077,0.0229965794,0.0427009720,-0.0098070449,-0.0533583770,-0.0667521941,-0.0610000340,-0.0453625847,-0.0162685030,-0.0182620336,0.0653080867,0.1039033240,0.0953201741,0.0528172782,0.0620972067,0.0695987301,0.0221126212,0.1862532734,-0.0027035849,-0.0083675606,-0.0089580582,-0.0010686363,-0.0124267388,-0.0124262932,0.0001078947,-0.0244265873,-0.0244256682,-0.0003927648,-0.0005006844,0.0000000911,-0.0372966505,-0.0383060729,-0.0118621041,-0.0103509998,-0.0012117953,-0.0095113973,-0.0098510120,-0.0044621221,-0.0148560997,-0.0084185500,-0.0510098898,-0.0453826857,-0.0093260758,-0.0123183187,-0.0009597665,0.0163903007,-0.0089575534,-0.0075336444,0.0187799677,0.0134063480,-0.0601899962,-0.0463995663,-0.0036125460,0.0236078021,0.0198182575,0.0167004786,0.0004892262,-0.0028097253,-0.0134292378,-0.0295877904,-0.0694802665,-0.1100673471,-0.0290934293,-0.0062309502,-0.0008805073,0.0241529187,0.0262299604,0.0017304667,0.0004989986,-0.0353669918,-0.0340889517,0.0236085546,0.0305970711,0.0542985007,0.0263777636,-0.0078138891,-0.0199944702,-0.0536341411,-0.0134278115,-0.0188805169,-0.0388479882,-0.1053658718,-0.1025616473,-0.0322461881,-0.0269143580,0.0026931484,0.0221777606,0.0203229312,0.0150655286,0.0184574085,0.0366362065,0.0748683438,0.0564509612,0.0412493503,0.0200773474,-0.0167581752,-0.0340176253,-0.0285378196,-0.0232872314,-0.0497515751,-0.0605169246,-0.0805906894,-0.0427694004,-0.0382228442,-0.0039280624,0.0249493404,0.0621067684,0.0495067967,0.0142357338,0.0019119999,0.0549606229,0.0477154410,-0.0117821162,0.0080030489,0.0169417520,0.0104400228,-0.0271749509,-0.0176769228,-0.0283186507,-0.0774918761,-0.0441462067,-0.0368138509,-0.0189059224,-0.0509264899,-0.0209681234,0.0172785946,0.0321426151,0.0268083149,0.0006905660,0.0102815417,0.0422403468,0.0546405787,0.0110320847,0.0380646266,0.0155666662,-0.0138315931,-0.0219074247,-0.0282291069,-0.0283184908,-0.0283182415,-0.0560077824,0.0181596352,-0.0147690746,-0.0512954532,-0.0635652518,0.0299971645,0.0331007602,0.0537605036,0.1049281784,0.0674227522,0.0194212662,0.0924463960,0.0863087367,0.0107589108,0.0207351297,0.0879198051,0.0021166539,-0.0091403133,-0.0131129141,-0.0169587843,0.0259200019,-0.0200013057,-0.0344441380,-0.0256638877,0.0238200581,0.0689845086,-0.0608860434,-0.0303484461,0.0471830402,0.0830626152,0.0003472214,0.0400545207,0.0433750979,0.0412132396,0.0442875868,0.0959419409,0.0502366123,0.0029868667,-0.0000000000,0.0003748862,0.0632921620,0.0048186498,-0.0273458312,-0.0340046026,0.0292165485,0.0505096146,-0.0647131010,-0.1352585187,-0.0728367620,0.0191298811,0.0770181650,0.0376110082,0.0410765428,0.0087640051,0.0502544002,0.0833863395,0.0612325379,0.0196790434,0.0000000000,0.0153037045,0.1057762865,0.0958258152,0.0370733635,-0.0005627003,-0.0019364056,-0.0447422177,-0.0792172570,-0.1157849482,-0.1347861737,-0.0449947952,-0.0282066221,-0.0153111900,0.0834723536,0.0373098250,0.0685577678,0.0714464141,0.0698208277,0.0200393024,0.0000585224,0.0214373669,0.1048783400,0.1491846382,0.0310738548,0.0652714933,0.0555994072,-0.0085821369,-0.0932198650,-0.0430854418,-0.0802687433,-0.0981573283,-0.1318226240,-0.0317057655,0.0073332175,-0.0007440804,0.0830211010,0.0858299822,0.0740099886,0.0314407901,0.0000584718,0.0160629689,0.0995217851,0.1012780292,0.0327335491,0.0191849461,0.0670084359,0.0503841228,-0.0257629847,-0.0825929391,-0.1141401304,-0.1081359572,-0.0900813743,-0.0143303246,0.0210650840,-0.0271386226,0.0602702972,0.1108382516,0.0778815374,0.0315580977,0.0000000088,0.0120867877,0.0669343043,0.1134073248,0.0304547039,0.0235491189,0.0472407593,-0.0824013720,-0.0189918907,-0.0736346565,-0.1521713880,-0.0994346686,-0.0407036378,-0.0455812712,0.0269573477,0.0425875103,0.0426173032,0.1081372870,0.0788933085,0.0326208727,-0.0000000002,0.0133309334,0.0565338773,0.0839957079,0.0727430756,-0.0289170476,0.0656495845,-0.0139528817,-0.0640646051,-0.0671938259,-0.1101885538,-0.0950425025,-0.0095960152,-0.0259848152,0.0447729175,0.0599596957,0.0280999546,0.0498606532,0.0667221536,0.0337196438,-0.0000002737,0.0000000681,0.0417820776,0.0786523279,0.0107808603,0.0227632290,0.0156670422,-0.0547961783,0.0152230470,-0.0500705995,-0.1102175748,-0.0072247742,-0.0354072490,-0.0130997100,-0.0062910232,0.0372304924,0.0522087616,0.0413480312,0.0380540704,0.0303347454,-0.0134281281,-0.0134281725,-0.0184624898,0.0309377302,-0.0439431461,-0.0642605279,-0.0378207731,0.0523688778,-0.0197951188,-0.0585275646,-0.0023175128,0.0842090246,0.0092179226,0.0055583266,-0.0122773422,0.0160945245,0.0079395566,0.0358233517,0.0295637274,0.0181378483,-0.0134287647,-0.0000000311,-0.0343092000,-0.1135036067,-0.0698255565,-0.0473828926,-0.0592823905,-0.0556146871,0.0032913303,0.0222865896,0.0557587544,-0.0027365062,0.0902450558,0.0434064904,0.0348730224,0.0663105606,-0.0064097756,-0.0015227497,0.0435961674,-0.0144504035,0.0000000000,-0.0131117994,-0.0927378946,-0.0871415643,-0.0693667848,-0.0238919156,-0.0378320478,-0.0557825697,0.0251109852,0.0251012756,0.0239268105,-0.0051573494,-0.0303952461,0.0376052129,0.0222701391,0.0397857228,0.0081648446,-0.0192482410,-0.0193134348,-0.0143282759,-0.0000000267,-0.0504109899,-0.0701300548,-0.0675409856,-0.0687180771,-0.0798114227,-0.0194386024,-0.0149384605,-0.0029832389,-0.0349380282,-0.0175823646,0.0670022415,-0.0097484339,-0.0126800264,0.0356854510,0.0470343599,-0.0171243504,-0.0179247385,-0.0363808885,-0.0141628606,-0.0000000163,-0.0041222409,-0.0376367361,-0.0637264256,-0.0647369704,-0.0904565117,-0.0163372193,-0.0109913551,-0.0065943918,-0.0029293759,-0.0109664669,-0.0068106021,0.0404582042,-0.0320894707,-0.0052395762,-0.0014295260,-0.0007633136,-0.0277882107,0.0051212857,-0.0761449450,-0.2278305991,0.0002098052,0.0067754918,0.0067796001,0.0001359246,0.0094738414,0.0094755336,-0.0003676181,0.0054216926,0.0054206554,-0.0078093701,-0.0074419901,0.0000000047,0.0376714418,0.0389387918,0.0001296879,0.0063092889,0.0057618085,0.0033401227,0.0008426103,0.0001459233,0.0017617366,0.0029735993,0.0129839706,0.0151931883,0.0036416020,0.0091059909,-0.0053716118,-0.0353894766,-0.0376150119,-0.0483937370,-0.0499962357,-0.0308155517,0.0609742979,0.0631800064,0.0107107690,0.0420851670,0.0360468419,0.0232924630,0.0145434490,0.0019932705,0.0015338223,0.0056644391,0.0327696001,0.0487543452,0.0045234916,-0.0112503093,-0.0447404516,-0.0692826386,-0.0883973361,-0.0840532446,-0.0784481159,-0.0088908759,0.0405413081,0.0320513512,0.0240244038,0.0657858616,0.0759853749,0.0365652810,0.0222270312,0.0118948820,0.0015333606,0.0044148190,0.0108666184,0.0292186032,0.0227028325,-0.0378262489,-0.0479580193,-0.0723128564,-0.1438201150,-0.0941719127,-0.0559660053,-0.0191503086,0.0179906634,0.0412928358,0.0430332786,0.0878038554,0.1055929134,0.0686647260,0.0434389478,0.0102328736,0.0081354226,0.0181215744,0.0144695093,0.0108999308,-0.0163516869,-0.0427310679,-0.0634686189,-0.1233291088,-0.1397964590,-0.0333138127,0.0025838728,0.0069008074,0.0219623591,0.0406761752,-0.0161148379,0.0709333179,0.0920889296,0.0946379568,0.0478567014,0.0056821633,-0.0011690827,0.0481119746,0.0473195464,0.0040436354,-0.0504105552,-0.0505831719,-0.0689266338,-0.0867621619,-0.0549813561,0.0012586331,0.0690807119,-0.0045233750,-0.0298989156,0.0482196104,0.0176601662,0.0292029710,0.0341419073,0.0829623671,0.0483939341,0.0040923864,-0.0011699697,-0.0011710222,0.0087542650,-0.0236093178,-0.0578201669,-0.0320187120,-0.0513013081,-0.0671617185,-0.0090471102,-0.0411667845,-0.0373272247,-0.0234010673,0.0337458583,-0.0217444256,-0.0246093851,0.0505170293,0.0064988459,0.0121058053,0.0212697750,0.0022461878,-0.0020731066,-0.0156473930,-0.0507037816,-0.0382622778,-0.0240256878,0.0260502988,-0.0601685886,-0.0284628437,0.0263603376,0.0628319404,0.0459155024,-0.0441103793,0.0065020727,-0.0268524634,-0.0719851509,0.0735719275,-0.0024063158,-0.0234013992,0.0193590838,0.0007480401,-0.0000000070,-0.0148246891,-0.0375715204,-0.0353988612,0.0398710265,-0.0242441374,-0.0105336157,-0.0397284180,0.0905202453,0.1905515243,0.0821350048,0.0093763672,-0.0243989761,-0.0157555118,-0.0435780047,-0.0035729669,0.0047797238,-0.0374136686,-0.0296550533,0.0115044408,0.0000000010,-0.0129228793,0.0068533983,0.0309443969,0.0496454440,-0.0116832904,-0.0251251749,0.0004508349,0.1136172001,0.1516831940,0.1015165011,0.0321621571,0.0685274614,0.0358140791,-0.0655402049,-0.0130446765,-0.0277707720,-0.0400133432,-0.0368951068,0.0024250172,0.0005667329,0.0132019561,0.0025220309,0.0056691891,-0.0071012057,-0.0177627488,-0.0505072793,-0.0035590739,0.1319585919,0.0872601995,0.1141697841,0.0694021506,0.0597109696,0.0562708068,-0.0343359837,0.0294166923,-0.0382271671,-0.0500430575,-0.0450802452,-0.0115883459,0.0005668087,0.0089078694,0.0103175138,-0.0140370678,0.0061590033,0.0645521753,0.0012482192,0.0133821084,0.1322323654,0.1056442412,0.1262958097,0.0603536770,0.0447033964,0.0004779102,-0.0215558103,0.0753910400,-0.0346705799,-0.0220353056,-0.0449250596,-0.0092547077,-0.0000000000,-0.0089582633,-0.0190696431,-0.0747087754,0.0156843135,0.0113519407,-0.0500115192,0.0531361416,0.1175918861,0.0997998812,0.1129447185,0.0700055180,0.0145503079,0.0209521185,0.0036662958,0.0374478909,-0.0105297998,-0.0173521536,-0.0407988620,-0.0092025652,0.0000000000,-0.0096023450,-0.0435899914,-0.0725079459,-0.0369932414,0.0731007989,-0.0434021861,0.0030539770,0.0392026216,0.0753446381,0.1162284297,0.0512968035,-0.0315428136,0.0467104914,0.0511453346,0.0127360263,-0.0079235892,-0.0035476184,-0.0154434107,-0.0079195881,0.0000000007,-0.0000000001,-0.0461875039,-0.0551013204,-0.0290726207,-0.0325656334,-0.0697465772,0.0413148825,-0.0114566592,0.0413184871,0.0643379313,0.0109002265,-0.0004990049,0.0708545049,0.0161884861,0.0059658191,-0.0331614117,0.0297318108,0.0089795633,0.0011121793,0.0015338566,0.0015340552,-0.0046469133,-0.0603088622,-0.0408921094,-0.0201530742,-0.0228300924,-0.0477772246,0.0539809252,0.0681503262,-0.0019472326,-0.0724011906,0.0378304107,0.0534574346,0.0436167829,0.0161279512,-0.0052898992,0.0140332897,0.0118977947,0.0211240021,0.0015338020,0.0000000001,-0.0029634203,0.0452365881,-0.0204064982,-0.0763566393,-0.0472164650,-0.1300675591,-0.0390960920,-0.0212388557,-0.0006383617,0.0350474965,0.0144727532,0.0458380198,0.0467032386,0.0341843246,0.0717162805,0.0327102944,0.0267765787,0.0327022423,0.0000000001,-0.0020729222,0.0512552409,0.0507017458,0.0007801400,-0.0518499648,-0.0586574969,-0.0531088218,-0.1019299681,-0.0143997347,-0.0089631548,0.0321604942,0.0330261454,0.0321262713,0.0494119865,0.0684532037,0.0412298602,0.0481096451,0.0860075242,0.0337142176,0.0000000000,0.0355982287,0.0399793338,0.0348776086,0.0327197353,0.0266260432,-0.0405457439,-0.0737380077,-0.0696421875,-0.0377687622,-0.0554461023,-0.0416126733,0.0195897336,0.0882190685,0.0799319637,0.0157498897,0.0274896768,0.0778268315,0.0812678690,0.0519076566,0.0000002187,0.0015849980,0.0118718022,0.0269916534,0.0229920175,0.0427016374,-0.0098088492,-0.0533627684,-0.0667655695,-0.0610051946,-0.0453670008,-0.0162720099,-0.0182629072,0.0653218219,0.1039421696,0.0953449321,0.0528242868,0.0620988538,0.0696130147,0.0221130787,-0.2282177131,0.0002094842,0.0067781185,0.0067782690,0.0001358087,0.0094762256,0.0094755201,-0.0003676017,0.0054214936,0.0054208280,-0.0078152503,-0.0074440745,0.0000000002,0.0376854859,0.0389505071,0.0001298760,0.0063102622,0.0057626588,0.0033406138,0.0008431897,0.0001451122,0.0017612622,0.0029732676,0.0129854390,0.0151954449,0.0036423538,0.0091081532,-0.0053717792,-0.0353969935,-0.0376296249,-0.0484073728,-0.0500111248,-0.0308208304,0.0609925740,0.0631989258,0.0107112828,0.0420954022,0.0360557664,0.0232985591,0.0145471205,0.0019937178,0.0015333527,0.0056629950,0.0327776855,0.0487653887,0.0045229230,-0.0112525854,-0.0447520767,-0.0692973225,-0.0884140837,-0.0840748454,-0.0784746455,-0.0088877811,0.0405579083,0.0320657662,0.0240283141,0.0658084466,0.0760016641,0.0365711616,0.0222298383,0.0118959769,0.0015329426,0.0044157722,0.0108693100,0.0292258804,0.0226997393,-0.0378381920,-0.0479687358,-0.0723249997,-0.1438537496,-0.0942037861,-0.0559763669,-0.0191464031,0.0180057855,0.0413071319,0.0430485133,0.0878407750,0.1056355395,0.0686779063,0.0434480750,0.0102346412,0.0081365538,0.0181238621,0.0144721533,0.0109004698,-0.0163559999,-0.0427474052,-0.0634824569,-0.1233656126,-0.1398207219,-0.0333187738,0.0025998559,0.0069064938,0.0219869550,0.0406918305,-0.0161203684,0.0709505197,0.0921305085,0.0946749592,0.0478682904,0.0056851312,-0.0011690661,0.0481280249,0.0473349951,0.0040531512,-0.0504237975,-0.0505937107,-0.0689494671,-0.0867902642,-0.0549923649,0.0012519737,0.0691086397,-0.0045279917,-0.0299038416,0.0482319254,0.0176714900,0.0292149622,0.0341539474,0.0829824342,0.0484048651,0.0040960517,-0.0011694808,-0.0011692687,0.0087577934,-0.0236087170,-0.0578350233,-0.0320286594,-0.0513155724,-0.0671703724,-0.0090563461,-0.0411842685,-0.0373308530,-0.0234032286,0.0337637026,-0.0217387131,-0.0246059876,0.0505337128,0.0065057810,0.0121235780,0.0212771154,0.0022458361,-0.0020725949,-0.0156526937,-0.0507113165,-0.0382697852,-0.0240209337,0.0260670660,-0.0601807342,-0.0284691107,0.0263575430,0.0628402470,0.0459487873,-0.0441247938,0.0065044346,-0.0268545477,-0.0720023375,0.0736200047,-0.0023994334,-0.0234028344,0.0193710103,0.0007484190,0.0000000059,-0.0148270306,-0.0375744946,-0.0353975666,0.0399032377,-0.0242701520,-0.0105386983,-0.0397389214,0.0905424468,0.1906062270,0.0821518667,0.0093968048,-0.0243961664,-0.0157554348,-0.0435882596,-0.0035674848,0.0047853050,-0.0374205967,-0.0296608925,0.0115078581,0.0000000233,-0.0129243303,0.0068809781,0.0309626194,0.0496609236,-0.0116870712,-0.0251337482,0.0004408576,0.1136480993,0.1517363420,0.1015407500,0.0321728506,0.0685634575,0.0358231408,-0.0655565474,-0.0130433801,-0.0277725963,-0.0400221767,-0.0368989296,0.0024275484,0.0005666294,0.0132044015,0.0025303290,0.0056939568,-0.0071075324,-0.0177482250,-0.0505174695,-0.0035598742,0.1320010849,0.0872773616,0.1142006201,0.0694184301,0.0597154292,0.0562875744,-0.0343386836,0.0294283679,-0.0382318148,-0.0500536262,-0.0450925110,-0.0115903469,0.0005665646,0.0089117970,0.0103373056,-0.0140097460,0.0061556175,0.0645809113,0.0012567867,0.0134012202,0.1322864407,0.1056694941,0.1263234500,0.0603696302,0.0447149666,0.0004779885,-0.0215687706,0.0754217221,-0.0346772222,-0.0220345171,-0.0449342567,-0.0092567393,0.0000000001,-0.0089594379,-0.0190662788,-0.0747171843,0.0157030510,0.0113596106,-0.0500348659,0.0531502124,0.1176217787,0.0998282992,0.1129687756,0.0700187083,0.0145536650,0.0209683275,0.0036619718,0.0374679825,-0.0105230918,-0.0173505091,-0.0408063348,-0.0092039365,0.0000000000,-0.0096030318,-0.0435976232,-0.0725180974,-0.0370028244,0.0731164196,-0.0434106007,0.0030458628,0.0392101588,0.0753579425,0.1162575656,0.0513075833,-0.0315592402,0.0467262612,0.0511835999,0.0127465066,-0.0079277348,-0.0035493595,-0.0154441316,-0.0079194983,0.0000000001,0.0000000042,-0.0461971103,-0.0551096555,-0.0290694169,-0.0325685566,-0.0697713738,0.0413378013,-0.0114510030,0.0413183121,0.0643499183,0.0109067893,-0.0004999640,0.0708892795,0.0162040349,0.0059757724,-0.0331673734,0.0297445474,0.0089886272,0.0011147080,0.0015338141,0.0015333949,-0.0046499015,-0.0603168222,-0.0408960927,-0.0201517732,-0.0228330884,-0.0477767707,0.0540104974,0.0681664688,-0.0019419177,-0.0724287919,0.0378463916,0.0534860650,0.0436378601,0.0161381326,-0.0052972272,0.0140351564,0.0118957196,0.0211329444,0.0015331020,0.0000000354,-0.0029654674,0.0452505279,-0.0204090317,-0.0763723557,-0.0472336169,-0.1301347371,-0.0391141559,-0.0212311623,-0.0006242072,0.0350493096,0.0144721158,0.0458813774,0.0467359807,0.0342197034,0.0717471963,0.0327169298,0.0267855345,0.0327107249,0.0000000456,-0.0020733897,0.0512710137,0.0507173876,0.0007791989,-0.0518680632,-0.0586649159,-0.0531175715,-0.1019456574,-0.0143935167,-0.0089553205,0.0321872692,0.0330443774,0.0321467489,0.0494396684,0.0684778249,0.0412390795,0.0481249349,0.0860316971,0.0337240555,0.0000000044,0.0356126819,0.0399916642,0.0348848786,0.0327253653,0.0266340508,-0.0405531173,-0.0737607749,-0.0696557094,-0.0377741619,-0.0554598447,-0.0416110435,0.0196039156,0.0882432265,0.0799741537,0.0157516089,0.0274921604,0.0778424294,0.0812843065,0.0519225297,-0.0000000092,0.0015853820,0.0118720424,0.0269954217,0.0229951607,0.0427126135,-0.0098103491,-0.0533815436,-0.0667796009,-0.0610259785,-0.0453767439,-0.0162723744,-0.0182606667,0.0653422920,0.1039690027,0.0953749303,0.0528358119,0.0621122465,0.0696300257,0.0221122201,-1.1617637096,-0.0034912478,-0.0044833270,-0.0053358070,-0.0013568290,-0.0027339435,-0.0027342620,-0.0003221653,-0.0160214399,-0.0160199227,-0.0095466677,-0.0092246273,0.0000000026,-0.0009134647,-0.0010273720,-0.0135468439,-0.0042112795,0.0029165591,-0.0077300336,-0.0117199844,-0.0056547988,-0.0120920128,-0.0079096330,-0.0415425825,-0.0322097816,-0.0067588179,-0.0030569411,-0.0048202674,-0.0164494537,-0.0422271007,-0.0518491434,-0.0286828492,-0.0156612054,0.0017638464,0.0139394805,0.0045543981,0.0589248661,0.0508990890,0.0343463625,0.0149504257,-0.0029412703,-0.0108106965,-0.0262498106,-0.0452198013,-0.0691210182,-0.0297108634,-0.0170839676,-0.0412132342,-0.0431745912,-0.0615234298,-0.0793722251,-0.0728736362,-0.0431762705,0.0099082580,0.0518292744,0.0451754439,0.1079984076,0.0861672394,0.0171895640,0.0017314363,-0.0400359488,-0.0108100057,-0.0150470534,-0.0333350638,-0.0868125889,-0.0862154037,-0.0712791220,-0.0705101064,-0.0696670530,-0.1331705609,-0.0790554805,-0.0429625110,-0.0032617039,0.0438584867,0.1063779166,0.0869977523,0.1160296963,0.1144523491,0.0431691159,0.0088985449,-0.0189069843,-0.0141680645,-0.0284146210,-0.0439258560,-0.0783439935,-0.0704796000,-0.0860195080,-0.0648716128,-0.1014107190,-0.0785226086,0.0181051286,0.0252087018,0.0129715463,0.0680287816,0.0649682174,-0.0524385522,0.0589796918,0.0970531888,0.1062314946,0.0100384790,-0.0213221238,-0.0355097156,-0.0265955079,0.0134528939,-0.0332136575,-0.0810996240,-0.1113607763,-0.0965980202,-0.0703416647,-0.0232680216,0.0268336443,0.0635962099,0.0035803232,0.0127947461,0.0976610928,0.0080377980,0.0370208349,0.0387999293,0.0639535520,0.0176973355,-0.0312578784,-0.0355132865,-0.0355125309,-0.0431804743,-0.0048120359,-0.0786365905,-0.0847420275,-0.1304522829,-0.0539537270,0.0260740988,0.0143656581,0.0659942845,0.0545424280,0.0569252984,0.0683925313,0.0571956686,0.0462734091,0.0161810801,0.0883272333,0.0100975481,-0.0067775075,-0.0223680776,-0.0372733868,-0.0362174271,-0.0625256403,-0.0551136287,0.0014759824,-0.0604441476,0.0286976927,-0.0403370565,0.0340691541,0.0904532347,0.0451931792,0.0115464338,0.0263560505,-0.0227161605,0.1078167641,0.0272803785,0.0663049257,0.0667585976,0.0031895839,-0.0000000001,-0.0208449466,0.0157168879,-0.0448793439,0.0007842097,-0.0687588185,0.0014626745,0.0077713090,0.0179948370,0.0477798385,0.0095843233,0.0351287093,0.0511407509,0.0339705456,0.0055340164,-0.0006484386,0.0500417663,0.0400132593,0.0282806422,0.0311514405,-0.0000000001,0.0021984135,0.1053335940,0.1044708020,0.0668036172,-0.0313503521,-0.0310898019,-0.0316493202,0.0220639040,0.0358690073,-0.0342315815,-0.0110061095,0.0458395319,0.0218144847,0.0368630034,0.0269406619,0.0407902058,0.0209996476,0.0298330586,0.0216837411,0.0003177563,0.0318539744,0.0908826952,0.1268374855,0.0106214898,0.0404261812,0.0154412725,-0.0005349458,0.0307471547,0.0450215228,0.0323490491,-0.0311686539,-0.0680735136,0.0339861682,-0.0030340126,0.0464622583,0.0430227564,0.0234726577,0.0226014742,0.0201352454,0.0003177881,0.0239724908,0.0877406454,0.0693033040,0.0343658072,0.0851240158,0.0704578174,0.0796535669,0.1036074287,0.0192779114,0.0120711195,-0.0524937038,-0.0456954526,0.0045643765,0.0215847655,0.0654728282,0.0255039833,0.0756346076,0.0269486779,0.0232317068,0.0000000503,0.0028223597,0.0297366441,0.0117916728,0.0419199792,0.0395801191,-0.0034594574,-0.0192839091,0.0898314688,0.0151131343,-0.0444739859,-0.0300865034,-0.0143063423,-0.0030979692,0.0500482017,0.0891014356,0.0308630371,0.0748501965,0.0356840051,0.0240652001,0.0000000016,0.0046081510,0.0022419860,-0.0036095571,0.0324427015,0.0383050199,0.0173323679,-0.0182155789,-0.0312632694,-0.0040505567,0.0014357862,-0.0367323286,-0.0258646787,0.0404973053,0.1042277466,0.0720477704,0.0158525849,0.0376240223,0.0489917089,0.0260384400,-0.0000000000,-0.0000000000,-0.0113587028,0.0165359224,-0.0245769790,-0.0237578770,-0.0686990209,-0.0176509448,-0.0099863619,-0.0011136536,-0.0325661814,0.0114844502,-0.0205702601,0.0539374257,0.0080849264,0.0346977653,0.0102640502,0.0703505084,0.0530124681,0.0309592654,-0.0108125901,-0.0108103385,-0.0176207492,-0.0429513055,-0.0983913235,-0.0969947299,-0.0650686766,-0.0091330614,0.0196904117,0.0042006268,0.0015813793,0.0171619313,0.0430620225,0.0526294404,0.0144701076,0.0188059641,-0.0078663520,0.0433238160,0.0472929968,0.0372218740,-0.0108103067,0.0000000379,-0.0394695830,-0.0722175382,-0.1073018225,-0.1422747116,-0.1079561218,-0.1844642000,-0.0442810302,-0.0069188105,0.0599381271,0.0373291905,0.0995598387,0.0725150585,0.0613654535,0.0845447639,0.0531994280,0.0252646223,0.0724126070,0.0198586862,-0.0000000003,-0.0223671224,-0.0507810089,-0.0443612974,-0.0760535921,-0.0833173032,-0.0976192165,-0.1090845726,-0.0837806325,0.0026716111,0.0043888111,0.0258991236,0.0034638408,0.0500801932,0.0540141508,0.0950320619,0.0281470241,0.0133048442,0.0611311770,0.0200811981,0.0000000138,-0.0232810245,-0.0437887167,-0.0416455942,-0.0391625631,-0.0455915187,-0.0588324652,-0.0940708926,-0.0753986061,-0.0775959509,-0.0820594923,0.0140571860,0.0132167197,0.0800685520,0.1076053226,0.0535156766,-0.0043422668,0.0356267523,0.0339729303,0.0350090504,-0.0000000000,-0.0032852563,-0.0281047553,-0.0469805456,-0.0442421163,-0.0446311023,-0.0265913541,-0.0616769335,-0.0698235641,-0.0625267520,-0.0557023417,-0.0251457828,0.0166384969,0.0382923274,0.1048050388,0.1032943773,0.0453669369,0.0215220013,0.0636743162,-0.0667303839,-0.2278956569,0.0002094548,0.0067817228,0.0067777210,0.0001358573,0.0094763090,0.0094745686,-0.0003676148,0.0054192007,0.0054188233,-0.0078112081,-0.0074436609,-0.0000000106,0.0376832606,0.0389458637,0.0001250763,0.0063089746,0.0057625958,0.0033402279,0.0008425497,0.0001442839,0.0017604517,0.0029726534,0.0129831592,0.0151903161,0.0036417450,0.0091056917,-0.0053727632,-0.0353967735,-0.0376297921,-0.0484071673,-0.0500106175,-0.0308224219,0.0609884676,0.0631934201,0.0107118679,0.0420938077,0.0360525579,0.0232981859,0.0145457118,0.0019929714,0.0015323541,0.0056626169,0.0327740386,0.0487563971,0.0045188143,-0.0112534365,-0.0447524165,-0.0692963480,-0.0884133867,-0.0840729467,-0.0784730467,-0.0088878986,0.0405531725,0.0320577598,0.0240252749,0.0658058056,0.0759983998,0.0365696110,0.0222275454,0.0118930047,0.0015315282,0.0044144230,0.0108667279,0.0292178341,0.0226931450,-0.0378406882,-0.0479751906,-0.0723227047,-0.1438484369,-0.0941978696,-0.0559734563,-0.0191458393,0.0180022751,0.0413048974,0.0430465058,0.0878355326,0.1056254993,0.0686721212,0.0434437671,0.0102322636,0.0081348080,0.0181211092,0.0144673262,0.0108978562,-0.0163622644,-0.0427505996,-0.0634832687,-0.1233706093,-0.1398131974,-0.0333218477,0.0026004619,0.0069134838,0.0219740058,0.0406867525,-0.0161195422,0.0709441079,0.0921273551,0.0946657518,0.0478644191,0.0056839144,-0.0011701132,0.0481197692,0.0473276540,0.0040488836,-0.0504261593,-0.0505954492,-0.0689471718,-0.0867873949,-0.0549947637,0.0012486606,0.0691036249,-0.0045309163,-0.0299035833,0.0482288174,0.0176642559,0.0292114139,0.0341491727,0.0829721516,0.0484025843,0.0040934141,-0.0011693549,-0.0011698041,0.0087534262,-0.0236107285,-0.0578386628,-0.0320301834,-0.0513251628,-0.0671748470,-0.0090603447,-0.0411888712,-0.0373349483,-0.0234161333,0.0337585323,-0.0217424219,-0.0246124959,0.0505268693,0.0065044201,0.0121218486,0.0212734533,0.0022462430,-0.0020728591,-0.0156498314,-0.0507110256,-0.0382734293,-0.0240225019,0.0260642472,-0.0601706445,-0.0284822188,0.0263531331,0.0628350594,0.0459419159,-0.0441142923,0.0065055753,-0.0268574847,-0.0720051866,0.0736092426,-0.0024078162,-0.0234044435,0.0193675652,0.0007485220,0.0000000001,-0.0148271429,-0.0375765866,-0.0353993308,0.0398846371,-0.0242605823,-0.0105404094,-0.0397490258,0.0905318774,0.1905897769,0.0821476009,0.0093846497,-0.0243908715,-0.0157668607,-0.0435882726,-0.0035729046,0.0047794787,-0.0374177870,-0.0296554237,0.0115079245,0.0000000210,-0.0129243640,0.0068756242,0.0309607114,0.0496614667,-0.0116889354,-0.0251371968,0.0004374159,0.1136337445,0.1517310430,0.1015276285,0.0321614121,0.0685536211,0.0358165044,-0.0655520061,-0.0130464929,-0.0277719714,-0.0400228627,-0.0369011556,0.0024264547,0.0005666904,0.0132042350,0.0025291585,0.0056949427,-0.0071098566,-0.0177717998,-0.0505142344,-0.0035653409,0.1319848279,0.0872669300,0.1141848992,0.0694111773,0.0597148563,0.0562818484,-0.0343534378,0.0294239028,-0.0382393940,-0.0500558141,-0.0450941607,-0.0115901484,0.0005668021,0.0089099925,0.0103393319,-0.0140113979,0.0061526648,0.0645695518,0.0012575508,0.0134021088,0.1322735879,0.1056539034,0.1263196264,0.0603623372,0.0447081464,0.0004736268,-0.0215645792,0.0754135867,-0.0346788671,-0.0220351348,-0.0449282837,-0.0092557357,-0.0000000334,-0.0089594621,-0.0190670583,-0.0747193794,0.0156930990,0.0113604176,-0.0500343407,0.0531431465,0.1176085852,0.0998169419,0.1129553962,0.0700081168,0.0145476981,0.0209566323,0.0036644467,0.0374569491,-0.0105312634,-0.0173514519,-0.0408087121,-0.0092042402,-0.0000000001,-0.0096034197,-0.0435949962,-0.0725146568,-0.0370013678,0.0731170001,-0.0434189145,0.0030364320,0.0392040041,0.0753460321,0.1162408700,0.0512991445,-0.0315506149,0.0467222408,0.0511761995,0.0127439014,-0.0079285067,-0.0035506472,-0.0154468660,-0.0079207253,0.0000000028,0.0000000028,-0.0461946902,-0.0551120296,-0.0290722127,-0.0325685759,-0.0697816874,0.0413290786,-0.0114720546,0.0413254842,0.0643436495,0.0109023095,-0.0005068978,0.0708816369,0.0161948377,0.0059703994,-0.0331685091,0.0297352485,0.0089779183,0.0011149426,0.0015327553,0.0015323378,-0.0046534508,-0.0603194924,-0.0409013741,-0.0201575945,-0.0228402487,-0.0477913794,0.0539864371,0.0681582820,-0.0019560522,-0.0724214810,0.0378417834,0.0534784987,0.0436322078,0.0161316575,-0.0052928942,0.0140324733,0.0118982236,0.0211325546,0.0015328662,0.0000002315,-0.0029660347,0.0452404227,-0.0204122827,-0.0763773153,-0.0472340403,-0.1301272589,-0.0391081152,-0.0212360164,-0.0006318734,0.0350420472,0.0144630789,0.0458749532,0.0467292178,0.0342104931,0.0717452618,0.0327127028,0.0267832249,0.0327072125,0.0000000113,-0.0020734620,0.0512653537,0.0507105136,0.0007752903,-0.0518687628,-0.0586734241,-0.0531197835,-0.1019491635,-0.0143936408,-0.0089513622,0.0321803253,0.0330370799,0.0321378988,0.0494393904,0.0684689335,0.0412380072,0.0481174317,0.0860293070,0.0337201611,0.0000002107,0.0356087656,0.0399856945,0.0348828567,0.0327218244,0.0266261897,-0.0405557836,-0.0737643227,-0.0696634254,-0.0377766073,-0.0554616099,-0.0416145605,0.0195983976,0.0882423434,0.0799648336,0.0157479743,0.0274892043,0.0778388057,0.0812770083,0.0519175179,0.0000000801,0.0015851238,0.0118704918,0.0269901907,0.0229920813,0.0427092401,-0.0098120180,-0.0533818519,-0.0667778580,-0.0610243901,-0.0453772376,-0.0162747195,-0.0182663909,0.0653370209,0.1039585903,0.0953659873,0.0528315079,0.0621103385,0.0696248068,0.0221075883,1.1664998476,0.0034979282,0.0044843173,0.0053402422,0.0013584294,0.0027233002,0.0027230048,0.0003226676,0.0160364006,0.0160360582,0.0095749241,0.0092487347,0.0000000000,0.0008788120,0.0009854899,0.0135681856,0.0042111131,-0.0029212556,0.0077407304,0.0117440469,0.0056675025,0.0121090156,0.0079203248,0.0415921435,0.0322412882,0.0067662365,0.0030458333,0.0048277865,0.0165155571,0.0423351190,0.0519797658,0.0287820922,0.0157169112,-0.0018609452,-0.0140458212,-0.0045644865,-0.0590557546,-0.0510051742,-0.0344103427,-0.0149964228,0.0029471196,0.0108261665,0.0262864920,0.0452537937,0.0691643327,0.0297490212,0.0171128292,0.0413191297,0.0433144365,0.0617122427,0.0795845911,0.0730547087,0.0432253669,-0.0100222103,-0.0519707338,-0.0452514846,-0.1082244522,-0.0863359300,-0.0172079940,-0.0017547824,0.0400859950,0.0108270365,0.0150662435,0.0333733885,0.0869155768,0.0863025554,0.0714199947,0.0706508730,0.0698406954,0.1335738063,0.0792849153,0.0430652161,0.0032287982,-0.0440248743,-0.1066586892,-0.0872085786,-0.1163029184,-0.1147525953,-0.0432912053,-0.0089667622,0.0189286768,0.0141802456,0.0284331705,0.0439684371,0.0784580637,0.0705725661,0.0861384887,0.0649765994,0.1017131009,0.0788094273,-0.0181408924,-0.0252969963,-0.0130306092,-0.0682034614,-0.0651474810,0.0525815356,-0.0591864120,-0.0973569297,-0.1065268640,-0.0100834801,0.0213788170,0.0355904576,0.0265778719,-0.0135702945,0.0332149361,0.0812398148,0.1115330055,0.0967814950,0.0705246328,0.0233559225,-0.0268819966,-0.0637937879,-0.0035608740,-0.0127444414,-0.0979404079,-0.0080758512,-0.0370926760,-0.0389296905,-0.0641675632,-0.0177532998,0.0313301635,0.0355915473,0.0355921181,0.0432332632,0.0048003643,0.0787768170,0.0848635610,0.1306756790,0.0540927652,-0.0261022615,-0.0143040675,-0.0660197823,-0.0546188582,-0.0571053816,-0.0685115070,-0.0573167140,-0.0464555186,-0.0162735594,-0.0884732651,-0.0100973713,0.0067965075,0.0224271651,0.0373732645,0.0363284194,0.0626219300,0.0551873927,-0.0015635164,0.0606050153,-0.0287029485,0.0404064044,-0.0341843360,-0.0906697916,-0.0452066214,-0.0115785130,-0.0263951576,0.0227951482,-0.1081281630,-0.0273149740,-0.0664010144,-0.0669056676,-0.0031890554,-0.0000000001,0.0209172862,-0.0157179631,0.0449755993,-0.0008881940,0.0689065443,-0.0014121063,-0.0077516925,-0.0181656064,-0.0481252044,-0.0097307392,-0.0352342890,-0.0512070250,-0.0340606290,-0.0055239663,0.0006453409,-0.0501643184,-0.0400304893,-0.0282889324,-0.0312212308,-0.0000000331,-0.0021804982,-0.1055717180,-0.1047146043,-0.0669868089,0.0314713843,0.0312034036,0.0316944050,-0.0222550596,-0.0361797290,0.0341254797,0.0109549161,-0.0460692725,-0.0219234545,-0.0368852081,-0.0269796053,-0.0408397579,-0.0209779362,-0.0298485255,-0.0217320988,-0.0003178084,-0.0319151146,-0.0910418877,-0.1270526872,-0.0106298030,-0.0404497180,-0.0154104741,0.0005632297,-0.0309978892,-0.0452696187,-0.0326248300,0.0310945610,0.0680587121,-0.0341651428,0.0030222482,-0.0466176642,-0.0430543305,-0.0234441291,-0.0225843051,-0.0201624337,-0.0003178028,-0.0240306731,-0.0878777121,-0.0694274100,-0.0344529808,-0.0853731356,-0.0705538993,-0.0798269072,-0.1039823211,-0.0195114829,-0.0123203041,0.0524718208,0.0456829198,-0.0046230907,-0.0216238297,-0.0657486396,-0.0254949441,-0.0757326006,-0.0269409739,-0.0232691213,0.0000000009,-0.0028175099,-0.0297598638,-0.0117318982,-0.0420465121,-0.0396490821,0.0036078900,0.0192530883,-0.0901630751,-0.0153182360,0.0443643438,0.0300101320,0.0142458680,0.0030125654,-0.0502125904,-0.0893403348,-0.0309198794,-0.0749588621,-0.0357044768,-0.0241029244,0.0000000004,-0.0046011391,-0.0021921930,0.0036626772,-0.0325049862,-0.0384963589,-0.0172263698,0.0182850282,0.0312768307,0.0039598818,-0.0016354071,0.0366677076,0.0259080874,-0.0407295475,-0.1045340647,-0.0722130054,-0.0159202224,-0.0377040234,-0.0490663065,-0.0260775280,0.0000000114,-0.0000000035,0.0114359546,-0.0165308182,0.0246315981,0.0237824618,0.0689289048,0.0175856914,0.0100550130,0.0010339228,0.0325154667,-0.0115576016,0.0205800774,-0.0541685749,-0.0081568428,-0.0348131227,-0.0102691450,-0.0705287454,-0.0531463792,-0.0310100262,0.0108274165,0.0108266466,0.0176470994,0.0430871730,0.0985799419,0.0971345538,0.0651444344,0.0092195548,-0.0198573051,-0.0043145073,-0.0015790057,-0.0170703546,-0.0431761532,-0.0527939265,-0.0145896127,-0.0189049403,0.0078618021,-0.0434057720,-0.0473927577,-0.0373068401,0.0108266394,0.0000000011,0.0395441094,0.0722896279,0.1074972640,0.1425639334,0.1081468557,0.1848946387,0.0443459075,0.0069291869,-0.0600894250,-0.0374344851,-0.0997472619,-0.0727206169,-0.0615659528,-0.0847691774,-0.0534076892,-0.0253326378,-0.0725665963,-0.0199366796,-0.0000000018,0.0224276968,0.0508293162,0.0443803273,0.0761588899,0.0834744431,0.0977722743,0.1092502371,0.0840175510,-0.0026874154,-0.0043675883,-0.0260951402,-0.0035731780,-0.0502151984,-0.0541794238,-0.0953262653,-0.0282124047,-0.0133317783,-0.0613256007,-0.0201613376,0.0000000002,0.0233008972,0.0438450017,0.0416665585,0.0391610382,0.0455768142,0.0589157523,0.0942841294,0.0755800159,0.0777428879,0.0822348558,-0.0140704641,-0.0133435267,-0.0804093652,-0.1078936989,-0.0536102779,0.0043635153,-0.0356919702,-0.0340963780,-0.0351276105,-0.0000000001,0.0032892172,0.0281233216,0.0470294266,0.0442748564,0.0446279762,0.0266360574,0.0618266342,0.0700058033,0.0626879265,0.0558351917,0.0251844206,-0.0166663218,-0.0385024249,-0.1051647340,-0.1036230206,-0.0454639702,-0.0215719296,-0.0638430441,0.0668547011,-1.1501862674,-0.0034913220,-0.0044798191,-0.0053343734,-0.0013552395,-0.0027376532,-0.0027387273,-0.0003223521,-0.0160292988,-0.0160267694,-0.0095418385,-0.0092200071,0.0000000074,-0.0009208450,-0.0010334657,-0.0135444678,-0.0042129145,0.0029191443,-0.0077322964,-0.0117150592,-0.0056515263,-0.0120915314,-0.0079061720,-0.0415459064,-0.0322154111,-0.0067612005,-0.0030646616,-0.0048265597,-0.0164456314,-0.0422293343,-0.0518574761,-0.0286892087,-0.0156715997,0.0017258409,0.0139106017,0.0045413013,0.0588655323,0.0508590414,0.0343071577,0.0149129576,-0.0029372198,-0.0108089523,-0.0262551641,-0.0452019253,-0.0691409203,-0.0297148811,-0.0170996648,-0.0412278731,-0.0431872996,-0.0615354505,-0.0793919922,-0.0729003738,-0.0432212391,0.0098298356,0.0517284611,0.0450961509,0.1078774770,0.0860658033,0.0171409895,0.0017207827,-0.0400526452,-0.0108123146,-0.0150484074,-0.0333306178,-0.0868288336,-0.0862595141,-0.0713009728,-0.0705372648,-0.0696865528,-0.1330553100,-0.0790458510,-0.0429916988,-0.0034070555,0.0436787125,0.1062368222,0.0868432977,0.1158448435,0.1142914888,0.0430780289,0.0089314889,-0.0189128720,-0.0141736561,-0.0284233817,-0.0439362126,-0.0783484962,-0.0705590214,-0.0860896599,-0.0648966148,-0.1013990733,-0.0785083270,0.0179918272,0.0251056291,0.0127997802,0.0678596537,0.0648850143,-0.0526120650,0.0587941073,0.0968435066,0.1060548745,0.0099707897,-0.0213122275,-0.0354906734,-0.0266165629,0.0133774957,-0.0332963270,-0.0811425048,-0.1114251963,-0.0966750580,-0.0704580310,-0.0232616442,0.0267064341,0.0634686869,0.0034732255,0.0127503949,0.0974215782,0.0079041951,0.0368948946,0.0385926599,0.0638024507,0.0176553800,-0.0312381239,-0.0354969199,-0.0354971306,-0.0431975247,-0.0048671895,-0.0786556477,-0.0848913120,-0.1306051468,-0.0541339007,0.0259012681,0.0142323930,0.0658481412,0.0543664686,0.0566898789,0.0682175983,0.0568726923,0.0461095198,0.0160361774,0.0881726370,0.0100523663,-0.0067778833,-0.0223499242,-0.0372636907,-0.0362261306,-0.0625961431,-0.0551711228,0.0012733947,-0.0605164325,0.0285053139,-0.0404756569,0.0338599724,0.0902547450,0.0450352522,0.0114674375,0.0261190292,-0.0228759385,0.1075418359,0.0270527656,0.0660726396,0.0666516941,0.0031902650,-0.0000000410,-0.0208297238,0.0156145247,-0.0449197928,0.0006658038,-0.0688200029,0.0013265714,0.0075029151,0.0177987117,0.0475466196,0.0094309496,0.0349806928,0.0508928100,0.0337682214,0.0053371595,-0.0008467206,0.0499424604,0.0398817281,0.0281941073,0.0311170187,-0.0000000263,0.0021960719,0.1051873795,0.1042328203,0.0666525432,-0.0313890669,-0.0312065802,-0.0318093317,0.0219267420,0.0356449602,-0.0344120680,-0.0111819433,0.0456520600,0.0216592225,0.0366405470,0.0268183834,0.0406804796,0.0208825972,0.0297435598,0.0216438378,0.0003180705,0.0318282334,0.0907902327,0.1265518563,0.0104452695,0.0402493391,0.0151539462,-0.0006580681,0.0305643458,0.0448132514,0.0321654566,-0.0313072731,-0.0681918501,0.0338233605,-0.0032539797,0.0464285164,0.0428936724,0.0233490859,0.0225182465,0.0200911869,0.0003176835,0.0239551066,0.0876536508,0.0690564620,0.0340827824,0.0849308625,0.0701969918,0.0793771174,0.1033031095,0.0190373629,0.0118711646,-0.0526244401,-0.0457792730,0.0044196062,0.0212915381,0.0653719164,0.0253463721,0.0755497321,0.0268571883,0.0231872835,0.0000000009,0.0028106626,0.0296903040,0.0117644425,0.0417906691,0.0393922268,-0.0036036157,-0.0195111361,0.0895618478,0.0149257156,-0.0446626946,-0.0303157738,-0.0144598351,-0.0033108032,0.0498602216,0.0888642948,0.0306716317,0.0747694418,0.0355870239,0.0240248042,-0.0000000018,0.0046048726,0.0022385045,-0.0036786151,0.0322900003,0.0381014755,0.0171666596,-0.0184326960,-0.0313829757,-0.0041582611,0.0012536934,-0.0368957688,-0.0260316841,0.0402710039,0.1039167732,0.0718761211,0.0156671172,0.0374740185,0.0488771475,0.0259990116,0.0000000383,-0.0000001106,-0.0113567996,0.0164397173,-0.0248260198,-0.0238332472,-0.0689367720,-0.0178700504,-0.0101784732,-0.0012817469,-0.0327318921,0.0112960820,-0.0207437999,0.0537761943,0.0078935659,0.0345967902,0.0101869861,0.0701800909,0.0528500869,0.0309199355,-0.0108124697,-0.0108098536,-0.0176424224,-0.0429639382,-0.0984286733,-0.0970699564,-0.0652977456,-0.0092245124,0.0195839068,0.0040244234,0.0014135694,0.0169803365,0.0428523405,0.0523417984,0.0143047611,0.0186019749,-0.0079303075,0.0432275357,0.0471556358,0.0371970778,-0.0108118655,0.0000000017,-0.0394610098,-0.0722273238,-0.1073185082,-0.1423223111,-0.1080184063,-0.1845040119,-0.0444182452,-0.0070396846,0.0597546382,0.0371848424,0.0992689547,0.0722977430,0.0612409847,0.0842489317,0.0530055676,0.0251692370,0.0723082609,0.0198066673,0.0000000141,-0.0223486716,-0.0507661042,-0.0443852134,-0.0761009332,-0.0833713526,-0.0976780970,-0.1091635611,-0.0837953902,0.0025808190,0.0042645635,0.0258513448,0.0033274430,0.0499111846,0.0538132264,0.0948465499,0.0280032137,0.0131890127,0.0610167578,0.0200253502,-0.0000000325,-0.0232702179,-0.0437670970,-0.0416788091,-0.0391757496,-0.0456643997,-0.0588826541,-0.0940792554,-0.0754098536,-0.0776972395,-0.0820656568,0.0138942966,0.0129943099,0.0798484859,0.1073682024,0.0533680602,-0.0044476900,0.0355428423,0.0338693132,0.0349308973,-0.0000002403,-0.0032831988,-0.0281131129,-0.0469766041,-0.0442559249,-0.0446565904,-0.0265967482,-0.0616786954,-0.0698260739,-0.0625377393,-0.0557185004,-0.0251761446,0.0165636296,0.0381188529,0.1045900804,0.1030939704,0.0453037001,0.0214500776,0.0635605746,-0.0666814363,-0.2277374625,0.0002095641,0.0067758711,0.0067766095,0.0001360024,0.0094733705,0.0094736820,-0.0003675607,0.0054204181,0.0054204214,-0.0078098983,-0.0074424292,-0.0000000456,0.0376741675,0.0389375800,0.0001274986,0.0063092025,0.0057612373,0.0033399664,0.0008431122,0.0001451245,0.0017620897,0.0029729620,0.0129833455,0.0151913079,0.0036438980,0.0091050482,-0.0053710434,-0.0353872778,-0.0376176058,-0.0483945515,-0.0499981290,-0.0308143060,0.0609736036,0.0631790503,0.0107114845,0.0420828564,0.0360446631,0.0232925566,0.0145429242,0.0019930264,0.0015323783,0.0056608176,0.0327670531,0.0487512982,0.0045218686,-0.0112513932,-0.0447412877,-0.0692814060,-0.0883934526,-0.0840506005,-0.0784522675,-0.0088909724,0.0405385645,0.0320519842,0.0240243853,0.0657846648,0.0759831947,0.0365650585,0.0222244900,0.0118937472,0.0015335818,0.0044146810,0.0108663333,0.0292192758,0.0226948159,-0.0378262655,-0.0479584164,-0.0723065966,-0.1438090830,-0.0941751507,-0.0559710798,-0.0191476367,0.0179895853,0.0412866779,0.0430401124,0.0878127580,0.1056110861,0.0686635125,0.0434381095,0.0102336576,0.0081353973,0.0181197815,0.0144689734,0.0108985815,-0.0163597780,-0.0427374939,-0.0634717761,-0.1233405077,-0.1397869384,-0.0333235737,0.0025910672,0.0069006397,0.0219663262,0.0406716438,-0.0161131252,0.0709286163,0.0920920809,0.0946499884,0.0478554094,0.0056823388,-0.0011688197,0.0481115632,0.0473180609,0.0040466998,-0.0504153206,-0.0505793632,-0.0689304564,-0.0867630595,-0.0549810940,0.0012472750,0.0690861130,-0.0045261759,-0.0299036450,0.0482105223,0.0176628803,0.0291941814,0.0341395967,0.0829600263,0.0483903937,0.0040948780,-0.0011713389,-0.0011695052,0.0087537451,-0.0236106023,-0.0578257558,-0.0320224560,-0.0512981691,-0.0671562841,-0.0090673108,-0.0411780605,-0.0373219410,-0.0234120209,0.0337485557,-0.0217480064,-0.0246155477,0.0505059620,0.0065003752,0.0121141266,0.0212694496,0.0022451700,-0.0020730152,-0.0156450469,-0.0507041965,-0.0382648299,-0.0240191155,0.0260548295,-0.0601701154,-0.0284826460,0.0263543733,0.0628315573,0.0459162037,-0.0441101073,0.0064989970,-0.0268578563,-0.0719914850,0.0735827634,-0.0024061479,-0.0234064003,0.0193628029,0.0007480993,-0.0000000003,-0.0148246526,-0.0375713838,-0.0353967587,0.0398575968,-0.0242395841,-0.0105333760,-0.0397347488,0.0905144610,0.1905518545,0.0821293540,0.0093774911,-0.0243955001,-0.0157574115,-0.0435803787,-0.0035770789,0.0047760594,-0.0374157758,-0.0296554015,0.0115046190,-0.0000001151,-0.0129208999,0.0068688074,0.0309391378,0.0496421953,-0.0116833159,-0.0251278875,0.0004381529,0.1136119927,0.1516872777,0.1015153161,0.0321577769,0.0685388722,0.0358048283,-0.0655489230,-0.0130443606,-0.0277667998,-0.0400117877,-0.0368978292,0.0024246013,0.0005668887,0.0132017123,0.0025189863,0.0056688439,-0.0071092326,-0.0177705625,-0.0505068360,-0.0035658604,0.1319666048,0.0872578155,0.1141667948,0.0694001140,0.0597075429,0.0562758688,-0.0343287619,0.0294116551,-0.0382250993,-0.0500451870,-0.0450769770,-0.0115882718,0.0005666126,0.0089065089,0.0103284862,-0.0140225745,0.0061596783,0.0645544414,0.0012460470,0.0133836031,0.1322499578,0.1056268273,0.1262838026,0.0603562653,0.0447021513,0.0004710643,-0.0215591431,0.0753941148,-0.0346698528,-0.0220394564,-0.0449222484,-0.0092554413,0.0000000446,-0.0089571997,-0.0190701145,-0.0747076924,0.0156955783,0.0113598933,-0.0500127772,0.0531397312,0.1175750401,0.0997987040,0.1129338678,0.0699986877,0.0145496961,0.0209597337,0.0036468586,0.0374392724,-0.0105230286,-0.0173600236,-0.0407973660,-0.0092031929,0.0000000001,-0.0096011797,-0.0435887317,-0.0725085855,-0.0370053612,0.0730876673,-0.0434012369,0.0030363715,0.0391985527,0.0753430886,0.1162253548,0.0512843493,-0.0315491541,0.0467109482,0.0511611553,0.0127405245,-0.0079289580,-0.0035550531,-0.0154466541,-0.0079192514,0.0000000002,-0.0000000000,-0.0461855600,-0.0550969564,-0.0290683669,-0.0325672963,-0.0697531539,0.0413326678,-0.0114375323,0.0413048560,0.0643361407,0.0109004911,-0.0005040066,0.0708529477,0.0161905305,0.0059663283,-0.0331624189,0.0297336994,0.0089757478,0.0011145676,0.0015329057,0.0015339572,-0.0046492217,-0.0603058163,-0.0408920770,-0.0201506763,-0.0228352825,-0.0477654624,0.0539873244,0.0681349590,-0.0019528106,-0.0724024826,0.0378335530,0.0534546960,0.0436178335,0.0161273257,-0.0052898033,0.0140272953,0.0118932042,0.0211256508,0.0015323403,-0.0000000069,-0.0029644427,0.0452360322,-0.0204099049,-0.0763602316,-0.0472176797,-0.1300821692,-0.0391034958,-0.0212385774,-0.0006432093,0.0350407993,0.0144714308,0.0458487536,0.0467054388,0.0341891527,0.0717230433,0.0327111890,0.0267800695,0.0327025669,0.0000000298,-0.0020732078,0.0512568998,0.0506994724,0.0007759210,-0.0518537907,-0.0586582315,-0.0531062270,-0.1019243112,-0.0143988017,-0.0089635797,0.0321611140,0.0330246102,0.0321276675,0.0494158930,0.0684449228,0.0412208140,0.0481094783,0.0860049403,0.0337151776,0.0000000042,0.0355999930,0.0399784123,0.0348761106,0.0327173535,0.0266256171,-0.0405471192,-0.0737456765,-0.0696478771,-0.0377721158,-0.0554461901,-0.0416108291,0.0195827037,0.0882127520,0.0799433181,0.0157421801,0.0274908261,0.0778268791,0.0812632736,0.0519080489,-0.0000000432,0.0015849856,0.0118672060,0.0269884098,0.0229918638,0.0426993849,-0.0098092163,-0.0533631960,-0.0667594274,-0.0610097066,-0.0453697282,-0.0162736919,-0.0182582570,0.0653149600,0.1039201996,0.0953365459,0.0528211144,0.0621001653,0.0696078005,0.0221063519,1.1663027911,0.0034971063,0.0044837806,0.0053386248,0.0013590299,0.0027218980,0.0027207121,0.0003225792,0.0160331301,0.0160328868,0.0095710218,0.0092483176,0.0000002744,0.0008734546,0.0009819222,0.0135652992,0.0042069157,-0.0029217296,0.0077390259,0.0117427853,0.0056663592,0.0121075767,0.0079185989,0.0415854576,0.0322365743,0.0067655003,0.0030446447,0.0048279000,0.0165162103,0.0423315605,0.0519775757,0.0287836265,0.0157160831,-0.0018639728,-0.0140496799,-0.0045678968,-0.0590540050,-0.0510054835,-0.0344106007,-0.0149951463,0.0029480661,0.0108248112,0.0262832983,0.0452445262,0.0691556854,0.0297502003,0.0171137056,0.0413187309,0.0433196957,0.0616990201,0.0795761560,0.0730567138,0.0432199033,-0.0100218563,-0.0519688837,-0.0452489614,-0.1082131350,-0.0863295917,-0.0172112312,-0.0017600571,0.0400801478,0.0108232119,0.0150643678,0.0333676172,0.0869035343,0.0862921762,0.0714121508,0.0706489587,0.0698367507,0.1335637233,0.0792792809,0.0430588586,0.0032315253,-0.0439946709,-0.1066424021,-0.0871939008,-0.1163023218,-0.1147469765,-0.0432892745,-0.0089698993,0.0189252066,0.0141758263,0.0284247720,0.0439600836,0.0784501285,0.0705577605,0.0861358263,0.0649754272,0.1017098288,0.0788053158,-0.0181301785,-0.0252849183,-0.0130242490,-0.0681949943,-0.0651341904,0.0525689608,-0.0591808640,-0.0973386935,-0.1065161573,-0.0100865965,0.0213748360,0.0355874553,0.0265726325,-0.0135674600,0.0332191206,0.0812221376,0.1115289900,0.0967603255,0.0705288488,0.0233497089,-0.0268787724,-0.0637863447,-0.0035608480,-0.0127530738,-0.0979258628,-0.0080765869,-0.0370940794,-0.0389267868,-0.0641619552,-0.0177634117,0.0313244103,0.0355859893,0.0355872895,0.0432273098,0.0048016199,0.0787634200,0.0848509917,0.1306539893,0.0540822450,-0.0261064725,-0.0142972899,-0.0660054514,-0.0546045604,-0.0571014757,-0.0684857269,-0.0572746781,-0.0464358400,-0.0162661592,-0.0884581189,-0.0101012767,0.0067931658,0.0224241763,0.0373692905,0.0363282491,0.0626203418,0.0551880456,-0.0015701172,0.0606041756,-0.0286875116,0.0404020853,-0.0341880463,-0.0906601129,-0.0451977090,-0.0115762324,-0.0264034337,0.0228057912,-0.1081083451,-0.0273390514,-0.0663927715,-0.0668967524,-0.0031899007,-0.0000000091,0.0209153165,-0.0157121347,0.0449634120,-0.0008877952,0.0688895927,-0.0014101379,-0.0077550278,-0.0181700648,-0.0481228424,-0.0097330678,-0.0352226882,-0.0511992607,-0.0340560331,-0.0055132923,0.0006417403,-0.0501598750,-0.0400209698,-0.0282880469,-0.0312203389,-0.0000000001,-0.0021795303,-0.1055607398,-0.1047022540,-0.0669798881,0.0314718226,0.0311953154,0.0316865460,-0.0222611038,-0.0361829949,0.0341187650,0.0109548905,-0.0460659899,-0.0219182362,-0.0368752726,-0.0269790095,-0.0408298002,-0.0209748688,-0.0298436450,-0.0217295186,-0.0003180359,-0.0319158477,-0.0910322724,-0.1270564593,-0.0106085788,-0.0404467787,-0.0154075927,0.0005646003,-0.0309965775,-0.0452676552,-0.0326044160,0.0310930913,0.0680439594,-0.0341582117,0.0030240739,-0.0466186266,-0.0430470336,-0.0234443299,-0.0225848518,-0.0201616683,-0.0003179701,-0.0240270022,-0.0878771479,-0.0694196682,-0.0344428241,-0.0853597054,-0.0705491517,-0.0798175304,-0.1039760353,-0.0195023648,-0.0123138539,0.0524628046,0.0456773709,-0.0046147531,-0.0216404003,-0.0657447492,-0.0254817169,-0.0757195822,-0.0269378985,-0.0232653517,0.0000000060,-0.0028169804,-0.0297610894,-0.0117289153,-0.0420449619,-0.0396477440,0.0036301227,0.0192546565,-0.0901483150,-0.0153191979,0.0443556713,0.0300142437,0.0142383506,0.0030192265,-0.0501990726,-0.0893262722,-0.0309134050,-0.0749437177,-0.0357003844,-0.0240992300,0.0000000016,-0.0045992121,-0.0021916575,0.0036681115,-0.0324938516,-0.0384804176,-0.0172273680,0.0182805606,0.0312633238,0.0039493190,-0.0016343075,0.0366628433,0.0259001903,-0.0407171103,-0.1045238170,-0.0722056152,-0.0159062913,-0.0376979563,-0.0490616100,-0.0260738837,-0.0000000002,-0.0000000006,0.0114351295,-0.0165377555,0.0246370706,0.0238001596,0.0689038603,0.0176013899,0.0100471321,0.0010374222,0.0325076007,-0.0115543073,0.0205719127,-0.0541400931,-0.0081531337,-0.0348078240,-0.0102670380,-0.0705279733,-0.0531388433,-0.0310106847,0.0108243516,0.0108252514,0.0176424651,0.0430866881,0.0985735103,0.0971195569,0.0651383184,0.0092210434,-0.0198510780,-0.0043129095,-0.0015870627,-0.0170709790,-0.0431780692,-0.0527737663,-0.0145876787,-0.0189000392,0.0078617530,-0.0433998895,-0.0473881630,-0.0373027295,0.0108241465,0.0000000228,0.0395386639,0.0722726613,0.1074902198,0.1425550241,0.1081286476,0.1849035451,0.0443335533,0.0069504067,-0.0600706713,-0.0374315026,-0.0997369017,-0.0727164675,-0.0615614717,-0.0847550601,-0.0533949031,-0.0253328873,-0.0725573184,-0.0199428672,0.0000000003,0.0224239137,0.0508174114,0.0443729597,0.0761518381,0.0834652382,0.0977660714,0.1092502738,0.0840130072,-0.0027071296,-0.0043825387,-0.0260964522,-0.0035733610,-0.0502060166,-0.0541746110,-0.0953105084,-0.0282040546,-0.0133411821,-0.0613280841,-0.0201635964,-0.0000000594,0.0232965295,0.0438349278,0.0416615265,0.0391589121,0.0455700640,0.0589090477,0.0942769474,0.0755761440,0.0777377455,0.0822513404,-0.0140543767,-0.0133354219,-0.0804032134,-0.1078954568,-0.0536025502,0.0043508750,-0.0356944109,-0.0341027545,-0.0351293460,0.0000000018,0.0032882972,0.0281198288,0.0470193065,0.0442694463,0.0446179004,0.0266323682,0.0618251301,0.0700043373,0.0626863683,0.0558364440,0.0251835140,-0.0166608023,-0.0384922415,-0.1051563490,-0.1036125578,-0.0454593003,-0.0215776044,-0.0638391152,0.0668418566,-0.2275974913,0.0002093562,0.0067757374,0.0067761848,0.0001359431,0.0094731582,0.0094721909,-0.0003676035,0.0054204238,0.0054195339,-0.0078088217,-0.0074417565,-0.0000000119,0.0376733365,0.0389384753,0.0001271173,0.0063087319,0.0057611426,0.0033401501,0.0008434672,0.0001452063,0.0017618822,0.0029729693,0.0129834035,0.0151915709,0.0036416749,0.0091045779,-0.0053722300,-0.0353851371,-0.0376181462,-0.0483909644,-0.0499986807,-0.0308138193,0.0609687624,0.0631754082,0.0107088791,0.0420821938,0.0360428191,0.0232911062,0.0145423651,0.0019932311,0.0015328643,0.0056617412,0.0327686848,0.0487517638,0.0045223030,-0.0112514422,-0.0447407214,-0.0692763709,-0.0883846210,-0.0840465883,-0.0784563541,-0.0088928926,0.0405376778,0.0320472879,0.0240184616,0.0657876457,0.0759800087,0.0365605715,0.0222232692,0.0118955428,0.0015334345,0.0044151180,0.0108677422,0.0292168737,0.0226929977,-0.0378288422,-0.0479593041,-0.0723060043,-0.1438181999,-0.0941723659,-0.0559744705,-0.0191502061,0.0179926124,0.0412908756,0.0430421482,0.0878033077,0.1056027112,0.0686559866,0.0434360292,0.0102336761,0.0081335467,0.0181186130,0.0144686563,0.0108973135,-0.0163599582,-0.0427446022,-0.0634631163,-0.1233471252,-0.1397960788,-0.0333100025,0.0025867773,0.0068994819,0.0219708647,0.0406695498,-0.0161200174,0.0709164810,0.0920995720,0.0946384614,0.0478499212,0.0056821984,-0.0011695479,0.0481133492,0.0473108128,0.0040474783,-0.0504083254,-0.0505862321,-0.0689361895,-0.0867663269,-0.0549853281,0.0012495928,0.0690773300,-0.0045269644,-0.0299013735,0.0482105781,0.0176525164,0.0291921216,0.0341384923,0.0829493801,0.0483893060,0.0040932910,-0.0011690709,-0.0011689329,0.0087523220,-0.0236096155,-0.0578209365,-0.0320346373,-0.0513169697,-0.0671632769,-0.0090519897,-0.0411741054,-0.0373298167,-0.0234037167,0.0337480766,-0.0217402104,-0.0246123075,0.0505149576,0.0064946422,0.0121112573,0.0212668189,0.0022460672,-0.0020729549,-0.0156464154,-0.0507046580,-0.0382704893,-0.0240312071,0.0260518934,-0.0601694152,-0.0284682983,0.0263517437,0.0628140382,0.0459172230,-0.0441068298,0.0065059694,-0.0268553677,-0.0719969682,0.0735884384,-0.0024088076,-0.0234019715,0.0193575102,0.0007480599,-0.0000000000,-0.0148252207,-0.0375735921,-0.0353988717,0.0398545594,-0.0242559830,-0.0105401506,-0.0397019001,0.0905108825,0.1905407297,0.0821294663,0.0093853406,-0.0243933941,-0.0157564613,-0.0435858713,-0.0035760636,0.0047725418,-0.0374147488,-0.0296517375,0.0115032211,0.0000000135,-0.0129217308,0.0068693899,0.0309392775,0.0496416709,-0.0116844036,-0.0251297187,0.0004357575,0.1136088955,0.1516841095,0.1015122849,0.0321585639,